tree
version=v4
num_class=1229
num_tree_per_iteration=1229
label_index=0
max_feature_idx=31
objective=multiclass num_class:1229
feature_names=Column_0 Column_1 Column_2 Column_3 Column_4 Column_5 Column_6 Column_7 Column_8 Column_9 Column_10 Column_11 Column_12 Column_13 Column_14 Column_15 Column_16 Column_17 Column_18 Column_19 Column_20 Column_21 Column_22 Column_23 Column_24 Column_25 Column_26 Column_27 Column_28 Column_29 Column_30 Column_31
feature_infos=[0.10453514754772186:30] [9.070239684660919e-06:0.77667897939682007] [240.25572204589844:8008.763671875] [315.04440307617188:4113.27880859375] [344.8939208984375:10089.7802734375] [1.293833975068992e-06:0.59727346897125244] [-1119.0948486328125:66.368240356445312] [-286.6632080078125:220.67520141601562] [-230.36000061035156:106.16823577880859] [-132.46208190917969:140.22262573242188] [-137.63697814941406:100.98419189453125] [-87.633949279785156:78.416999816894531] [-93.341934204101562:53.748886108398438] [-72.627616882324219:64.321014404296875] [-60.141433715820312:50.295707702636719] [-42.974765777587891:68.84375] [-43.578475952148438:61.31622314453125] [-50.13623046875:39.888710021972656] [-38.069259643554688:34.333305358886719] [4.8808407783508301:231.53704833984375] [3.2578423023223877:97.212249755859375] [2.771014928817749:73.425323486328125] [3.0052716732025146:55.764347076416016] [3.152855396270752:42.278926849365234] [2.6206314563751221:38.201095581054688] [2.3911905288696289:31.926361083984375] [1.2671293020248413:30.24848747253418] [2.1673030853271484:28.893428802490234] [2.217463493347168:26.688808441162109] [2.0477519035339355:27.035972595214844] [2.0087215900421143:26.069540023803711] [2.0397160053253174:27.21568489074707]
tree_sizes=575 562 573 769 893 772 460 873 773 875 461 568 461 361 244 987 244 668 462 884 666 1409 986 1410 983 873 672 679 1511 971 774 577 1294 869 1727 982 470 471 874 1190 1088 679 568 1510 244 766 674 459 990 884 1726 681 558 577 471 883 671 775 244 1092 884 577 768 569 361 976 680 563 670 559 570 1189 1092 775 879 770 1083 1088 670 1088 1192 882 571 769 782 769 672 681 662 974 996 244 563 775 1075 672 665 1198 244 567 679 1086 1197 990 1191 1297 1620 774 882 974 1093 872 878 1196 245 1088 679 1082 1404 893 883 1091 876 982 245 1082 1305 980 1089 985 666 975 1204 567 874 675 985 987 1084 1189 1626 884 878 1397 880 1517 1197 574 568 673 1085 862 1405 670 776 1082 566 1089 676 877 467 1301 880 1202 1194 666 245 982 1510 771 1083 977 873 1288 1415 776 1300 1089 879 893 1401 574 1093 1616 984 1609 576 680 780 982 987 1414 1501 884 879 565 667 773 566 668 1837 670 668 982 1627 1000 981 765 985 771 772 566 1085 782 1087 1091 568 1297 1296 460 669 1084 1618 877 1303 1512 1303 1403 777 669 459 1293 1411 1729 245 882 993 1188 672 878 877 779 1400 1405 982 1519 885 1081 472 776 667 1083 1184 880 1523 870 676 665 777 983 774 574 775 771 1088 1303 567 675 566 878 572 674 1086 1402 566 872 245 776 663 573 1399 773 673 566 471 455 245 1193 574 460 789 881 672 1194 1309 675 878 675 1294 1512 560 876 1076 673 985 1082 984 884 775 680 978 567 1305 673 979 1617 876 669 568 987 982 1398 772 768 982 769 1199 974 1191 1395 991 464 468 670 567 771 775 1300 1086 1292 884 989 1306 879 676 670 871 762 677 770 1193 1081 874 776 770 678 564 1089 1093 872 1087 1089 560 1091 675 1092 1087 773 874 781 665 1194 876 982 784 672 1195 1303 665 1502 1083 1093 564 362 776 981 464 983 897 982 985 982 979 471 1204 987 1190 679 989 769 785 1613 883 671 880 567 1296 1186 980 986 881 1089 772 245 1300 1518 881 777 779 1078 568 1723 974 669 979 562 1509 1507 980 768 886 574 665 1082 784 878 245 568 459 1089 881 667 877 875 1293 673 773 1190 1087 776 967 663 876 989 974 977 359 875 883 770 891 1304 1301 775 1197 774 985 778 1302 1403 574 566 1205 1092 666 1294 879 986 885 982 566 775 977 1393 771 881 777 671 781 980 1514 1414 879 769 1299 984 782 892 1191 778 778 671 1402 879 771 1077 677 1088 561 780 567 775 676 1089 878 1199 978 979 880 574 1407 1086 879 985 775 775 887 978 459 777 565 779 898 881 565 1197 1199 882 1724 775 1196 1611 876 1296 1191 985 1302 876 1300 780 675 1080 1186 667 671 671 977 1725 670 1202 878 977 989 886 1085 776 561 776 980 1092 472 1091 1081 1196 980 1186 362 671 1093 1098 982 772 1112 460 783 1083 461 462 876 886 999 879 771 1098 779 1093 877 1509 1195 1092 1297 1299 984 994 1304 568 877 565 774 883 671 1085 777 771 667 1618 1200 984 1191 463 874 1403 679 775 1303 460 871 672 1633 472 1198 1730 982 979 982 782 1404 1192 984 359 1089 1190 985 569 878 472 897 1087 774 1089 1409 878 882 983 1519 1201 768 575 1831 1082 980 880 977 985 1401 880 875 881 1508 771 1086 775 980 980 779 665 989 774 671 982 875 1618 245 986 1081 669 673 777 975 1191 988 568 1195 472 670 1291 769 1194 979 1404 567 564 769 1407 681 570 990 1399 773 985 677 874 769 245 1198 1081 568 887 668 1085 881 1732 1214 663 986 560 1092 671 464 1402 878 889 1083 781 775 993 1089 894 871 1298 1724 666 873 1510 980 1087 876 1194 568 1190 679 772 467 561 1508 1085 1203 1105 1511 666 667 770 245 1406 881 980 472 779 776 982 1194 1095 669 882 1512 978 574 774 459 889 1507 875 1197 771 459 1087 774 1620 769 663 1189 1298 879 988 565 1084 877 1402 773 467 982 985 567 1094 980 1083 565 561 879 670 977 1085 570 877 668 1087 568 980 776 774 774 769 1084 769 468 879 560 877 778 983 777 672 1627 1087 985 1509 975 991 788 675 1305 887 670 884 1197 567 876 1091 1089 667 1086 980 1500 784 673 1297 465 1197 1085 1297 664 1094 984 769 1199 776 1089 775 879 1091 1097 677 1090 982 1305 471 1299 1195 672 1630 883 985 561 775 990 1083 981 679 774 472 1088 673 878 782 670 569 1411 683 979 771 874 667 884 667 980 986 882 671 879 772 787 1082 574 883 776 1630 1300 1083 875 1400 873 362 472 784 1301 1082 571 981 1085 872 782 775 985 1515 1091 774 871 676 245 984 981 677 888 988 1296 870 574 981 977 886 573 877 669 769 873 877 1098 1085 1405 873 1076 567 671 873 984 463 676 1527 889 1405 775 667 880 668 877 1615 671 1203 872 880 777 570 895 975 874 985 783 671 1303 1196 980 566 1301 876 989 783 666 1186 977 872 771 1299 1197 673 1302 1080 1189 1079 878 980 987 877 775 1090 571 578 775 461 975 1406 775 1295 983 459 1087 876 667 1289 1514 882 783 567 772 564 567 979 769 769 1090 881 560 1092 1080 567 883 1296 777 874 578 1087 567 982 1304 986 682 777 1210 1304 975 678 886 883 1084 1299 359 468 987 1183 880 1513 785 1077 882 672 985 246 984 1201 1081 982 1304 887 874 775 473 767 1296 669 983 1201 983 1193 981 565 775 781 877 783 979 1086 1082 1409 1196 772 463 977 671 680 1405 882 778 880 981 986 979 678 360 671 1091 988 875 978 882 786 1087 787 768 460 676 884 881 884 979 571 1196 768 1093 572 670 768 570 465 986 881 872 773 788 1299 673 570 973 1087 873 773 1298 1190 672 670 678 974 468 1096 1093 780 669 766 880 1306 1084 458 768 459 573 779 876 774 1513 1205 1732 575 880 674 879 664 676 774 986 1622 473 463 1288 880 1191 1191 1408 1192 981 1192 1617 893 1299 568 569 780 1620 567 776 875 776 771 568 1520 780 246 874 875 880 875 878 1511 673 976 1092 887 981 1080 881 784 1187

Tree=0
num_leaves=4
num_cat=0
split_feature=19 0 1
split_gain=164.784 1.11022e-16 2.77556e-17
threshold=143.55896759033206 15.294535160064699 0.23483592271804812
decision_type=2 2 2
left_child=1 2 -1
right_child=-2 -3 -4
leaf_value=-8.2982398447492471 0.0036960432586408132 -8.2982398447492489 -8.2982398447492471
leaf_weight=0.13276107094134204 0.0060226915811654172 0.54597008464043029 0.11207443464081734
leaf_count=507 23 2085 428
internal_value=-8.23549 -8.29824 -8.29824
internal_weight=0.796828 0.790806 0.244836
internal_count=3043 3020 935
is_linear=0
shrinkage=1


Tree=1
num_leaves=4
num_cat=0
split_feature=8 14 0
split_gain=70.672 257.243 4.44089e-16
threshold=39.272371292114265 8.7427849769592303 11.864331245422365
decision_type=2 2 2
left_child=2 -2 -1
right_child=1 -3 -4
leaf_value=-6.9119847600937803 -6.9119847600937803 -1.3996403829731401 -6.9119847600937812
leaf_weight=0.68866413715295571 0.09524078492540855 0.027211652835831046 2.3736934089101851
leaf_count=658 91 26 2268
internal_value=-6.86489 -5.68702 -6.91198
internal_weight=3.18481 0.122452 3.06236
internal_count=3043 117 2926
is_linear=0
shrinkage=1


Tree=2
num_leaves=4
num_cat=0
split_feature=2 3 1
split_gain=118.085 2.22045e-16 6.93889e-18
threshold=6268.8942871093759 3042.6967773437505 0.35423716902732855
decision_type=2 2 2
left_child=1 -1 -3
right_child=-2 2 -4
leaf_value=-8.2982398447492489 -2.3312234252432988 -8.2982398447492471 -8.2982398447492436
leaf_weight=0.74079106448334642 0.0083793969824910164 0.037183574109803885 0.01047424622811377
leaf_count=2829 32 142 40
internal_value=-8.23549 -8.29824 -8.29824
internal_weight=0.796828 0.788449 0.0476578
internal_count=3043 3011 182
is_linear=0
shrinkage=1


Tree=3
num_leaves=6
num_cat=0
split_feature=8 6 9 0 2
split_gain=14.3463 67.4962 171.209 4.44089e-16 2.22045e-16
threshold=22.147435188293461 -464.68551635742182 31.447551727294925 28.526507377624515 1969.9995117187502
decision_type=2 2 2 2 2
left_child=3 2 -2 4 -1
right_child=1 -3 -4 -5 -6
leaf_value=-7.199653731679259 -7.1996537316792582 -7.1996537316792599 -0.83150209727631719 -7.1996537316792599 -7.1996537316792599
leaf_weight=0.12483999493997622 0.032191445236094296 0.2017854006262495 0.015703144017606974 1.0010754311224443 1.0136379463365299
leaf_count=159 41 257 20 1275 1291
internal_value=-7.1578 -6.79914 -5.11174 -7.19965 -7.19965
internal_weight=2.38923 0.24968 0.0478946 2.13955 1.13848
internal_count=3043 318 61 2725 1450
is_linear=0
shrinkage=1


Tree=4
num_leaves=7
num_cat=0
split_feature=19 0 0 1 1 2
split_gain=215.769 2.22045e-16 1.11022e-16 1.11022e-16 1.11022e-16 3.46945e-18
threshold=134.72145080566409 29.981224060058597 28.794036865234379 0.50229206681251537 0.35055474936962133 5883.8845214843759
decision_type=2 2 2 2 2 2
left_child=1 2 -1 4 -3 -5
right_child=-2 3 -4 5 -6 -7
leaf_value=-7.6051057476353829 -2.1481196075652411 -7.6051057476353829 -7.6051057476353812 -7.6051057476353803 -7.6051057476353829 -7.6051057476353785
leaf_weight=0.85552192968316354 0.018325133132748417 0.53980606456752867 0.025655186385847628 0.015707256970927119 0.12722878146450967 0.010995079879648983
leaf_count=1634 35 1031 49 30 243 21
internal_value=-7.54234 -7.60511 -7.60511 -7.60511 -7.60511 -7.60511
internal_weight=1.59324 1.57491 0.881177 0.693737 0.667035 0.0267023
internal_count=3043 3008 1683 1325 1274 51
is_linear=0
shrinkage=1


Tree=5
num_leaves=6
num_cat=0
split_feature=20 1 15 29 1
split_gain=92.7821 158.603 18.5834 44.6721 4.44089e-16
threshold=57.335546493530281 0.22483309358358386 23.016593933105472 6.9514365196228036 0.24926874786615374
decision_type=2 2 2 2 2
left_child=2 -2 4 -4 -1
right_child=1 -3 3 -5 -6
leaf_value=-7.1996537316792599 -0.83150209727627278 -7.1996537316792582 -4.015577914477765 -7.1996537316792582 -7.1996537316792599
leaf_weight=1.2185639757663023 0.015703144017606863 0.025910187629051507 0.015703144017606863 0.036902388441376388 1.0764505224069578
leaf_count=1552 20 33 20 47 1371
internal_value=-7.13687 -4.79658 -7.17836 -6.24918 -7.19965
internal_weight=2.38923 0.0416133 2.34762 0.0526055 2.29501
internal_count=3043 53 2990 67 2923
is_linear=0
shrinkage=1


Tree=6
num_leaves=3
num_cat=0
split_feature=4 1
split_gain=229.895 4.44089e-16
threshold=9425.8886718750018 0.071182847023010268
decision_type=2 2
left_child=1 -1
right_child=-2 -3
leaf_value=-7.199653731679259 -1.4104249731310601 -7.1996537316792599
leaf_weight=0.20178540062625039 0.01727345841936756 2.1701745032332838
leaf_count=257 22 2764
internal_value=-7.1578 -7.19965
internal_weight=2.38923 2.37196
internal_count=3043 3021
is_linear=0
shrinkage=1


Tree=7
num_leaves=7
num_cat=0
split_feature=2 12 11 3 0 0
split_gain=109.87 141.514 8.12303 55.1337 4.44089e-16 1.38778e-17
threshold=6052.5717773437509 -2.4310653209686275 -25.132663726806637 2855.339721679688 24.866304397583011 29.61943340301514
decision_type=2 2 2 2 2 2
left_child=2 -2 3 5 -4 -1
right_child=1 -3 4 -5 -6 -7
leaf_value=-7.199653731679259 -7.1996537316792573 -0.83150209727627278 -7.1996537316792599 -4.0155779144777872 -7.1996537316792599 -7.1996537316792582
leaf_weight=0.068308676476591113 0.019628930022008717 0.015703144017606863 1.0850872516166421 0.015703144017606974 1.1518256136914713 0.032976602436974645
leaf_count=87 25 20 1382 20 1467 42
internal_value=-7.13687 -4.36936 -7.17841 -6.77226 -7.19965 -7.19965
internal_weight=2.38923 0.0353321 2.3539 0.116988 2.23691 0.101285
internal_count=3043 45 2998 149 2849 129
is_linear=0
shrinkage=1


Tree=8
num_leaves=6
num_cat=0
split_feature=21 21 26 0 0
split_gain=208.927 13.4219 49.8377 4.44089e-16 6.93889e-18
threshold=4.8546593189239511 6.4080803394317636 6.1058082580566415 7.7802720069885263 29.895124435424808
decision_type=2 2 2 2 2
left_child=-1 2 4 -3 -2
right_child=1 3 -4 -5 -6
leaf_value=-1.8928607030101778 -7.1996537316792582 -7.1996537316792599 -4.0155779144777872 -7.1996537316792599 -7.1996537316792573
leaf_weight=0.018843772821128701 0.038472702843137419 0.26302766229491714 0.015703144017606974 2.0351274646818638 0.01805861562024802
leaf_count=24 49 335 20 2592 23
internal_value=-7.13687 -7.17856 -6.50746 -7.19965 -7.19965
internal_weight=2.38923 2.37039 0.0722345 2.29816 0.0565313
internal_count=3043 3019 92 2927 72
is_linear=0
shrinkage=1


Tree=9
num_leaves=7
num_cat=0
split_feature=28 8 8 6 0 0
split_gain=40.6027 2.32305 37.1719 4.44089e-16 5.55112e-17 1.38778e-17
threshold=3.4130654335021977 19.771858215332035 21.169855117797855 -243.5512771606445 11.715918540954592 10.031518936157228
decision_type=2 2 2 2 2 2
left_child=-1 3 -3 -2 5 -4
right_child=1 2 4 -5 -6 -7
leaf_value=-4.8348694875556051 -6.9119847600937812 -4.9214159572446565 -6.9119847600937803 -6.9119847600937812 -6.9119847600937803 -6.9119847600937785
leaf_weight=0.024071846739389335 2.205190481734463 0.025118448771536239 0.065935928025282919 0.5766777197131886 0.26374371210113168 0.024071846739389002
leaf_count=23 2107 24 63 551 252 23
internal_value=-6.88059 -6.89617 -6.78001 -6.91198 -6.91198 -6.91198
internal_weight=3.18481 3.16074 0.37887 2.78187 0.353751 0.0900078
internal_count=3043 3020 362 2658 338 86
is_linear=0
shrinkage=1


Tree=10
num_leaves=3
num_cat=0
split_feature=20 2
split_gain=454.74 4.44089e-16
threshold=62.445047378540046 6268.8942871093759
decision_type=2 2
left_child=1 -1
right_child=-2 -3
leaf_value=-7.1996537316792599 0.44212822960441045 -7.1996537316792582
leaf_weight=2.3444794018287221 0.019628930022008606 0.025125030428171047
leaf_count=2986 25 32
internal_value=-7.13687 -7.19965
internal_weight=2.38923 2.3696
internal_count=3043 3018
is_linear=0
shrinkage=1


Tree=11
num_leaves=4
num_cat=0
split_feature=20 0 3
split_gain=606.479 8.88178e-16 2.22045e-16
threshold=62.445047378540046 27.579364776611332 3109.6472167968755
decision_type=2 2 2
left_child=1 -1 -3
right_child=-2 2 -4
leaf_value=-6.9119847600937812 0.73179944284686105 -6.9119847600937812 -6.9119847600937794
leaf_weight=1.6797962615964939 0.026165050803683587 1.423378763720393 0.055469907703809551
leaf_count=1605 25 1360 53
internal_value=-6.84919 -6.91198 -6.91198
internal_weight=3.18481 3.15864 1.47885
internal_count=3043 3018 1413
is_linear=0
shrinkage=1


Tree=12
num_leaves=3
num_cat=0
split_feature=28 0
split_gain=659.653 8.88178e-16
threshold=3.4130654335021977 15.942449092864992
decision_type=2 2
left_child=-1 -2
right_child=1 -3
leaf_value=1.3964763300589143 -6.9119847600937812 -6.9119847600937812
leaf_weight=0.024071846739389335 1.0225301854079591 2.1382079516770318
leaf_count=23 977 2043
internal_value=-6.84919 -6.91198
internal_weight=3.18481 3.16074
internal_count=3043 3020
is_linear=0
shrinkage=1


Tree=13
num_leaves=2
num_cat=0
split_feature=1
split_gain=1.11022e-16
threshold=0.44583584368228918
decision_type=2
left_child=-1
right_child=-2
leaf_value=-8.2982398447492489 -8.2982398447492471
leaf_weight=0.734768372902181 0.06205990890157409
leaf_count=2806 237
internal_value=-8.29824
internal_weight=0.796828
internal_count=3043
is_linear=0
shrinkage=1


Tree=14
num_leaves=1
num_cat=0
split_feature=
split_gain=
threshold=
decision_type=
left_child=
right_child=
leaf_value=-34.538776391283193
leaf_weight=
leaf_count=3821
internal_value=
internal_weight=
internal_count=
is_linear=0
shrinkage=1


Tree=15
num_leaves=8
num_cat=0
split_feature=6 15 7 0 0 1 1
split_gain=81.1629 34.7369 60.1279 2.22045e-16 1.11022e-16 1.11022e-16 3.46945e-18
threshold=-650.89614868164051 24.237094879150394 3.72883152961731 29.981224060058597 29.270113945007328 0.48679511249065405 0.5591925084590913
decision_type=2 2 2 2 2 2 2
left_child=-1 3 -3 4 -2 -5 -7
right_child=1 2 -4 5 -6 6 -8
leaf_value=-3.4530510758430131 -7.6051057476353829 -2.8302428750741235 -7.6051057476353803 -7.6051057476353829 -7.6051057476353794 -7.6051057476353803 -7.6051057476353785
leaf_weight=0.012042230344377569 0.85552192968316354 0.010471504647284635 0.017801557900384068 0.6581340670818463 0.012565805576741695 0.015707256970927119 0.010995079879648983
leaf_count=23 1634 20 34 1257 24 30 21
internal_value=-7.54234 -7.57348 -5.83664 -7.60511 -7.60511 -7.60511 -7.60511
internal_weight=1.59324 1.5812 0.0282731 1.55292 0.868088 0.684836 0.0267023
internal_count=3043 3020 54 2966 1658 1308 51
is_linear=0
shrinkage=1


Tree=16
num_leaves=1
num_cat=0
split_feature=
split_gain=
threshold=
decision_type=
left_child=
right_child=
leaf_value=-34.538776391283193
leaf_weight=
leaf_count=3821
internal_value=
internal_weight=
internal_count=
is_linear=0
shrinkage=1


Tree=17
num_leaves=5
num_cat=0
split_feature=30 7 19 1
split_gain=57.2119 131.378 39.4906 4.44089e-16
threshold=14.753782272338869 1.8070920109748843 9.4348187446594256 0.51867464184761058
decision_type=2 2 2 2
left_child=2 -2 -1 -4
right_child=1 -3 3 -5
leaf_value=-4.9214159572447258 -2.1346196332559186 -6.9119847600937794 -6.9119847600937812 -6.9119847600937803
leaf_weight=0.025118448771537127 0.020932040642946848 0.046050489414483309 3.003747832262889 0.088961172732524463
leaf_count=24 20 44 2870 85
internal_value=-6.86489 -5.41906 -6.89595 -6.91198
internal_weight=3.18481 0.0669825 3.11783 3.09271
internal_count=3043 64 2979 2955
is_linear=0
shrinkage=1


Tree=18
num_leaves=3
num_cat=0
split_feature=15 16
split_gain=12.021 82.8486
threshold=18.312678337097172 -18.885028839111325
decision_type=2 2
left_child=-1 -2
right_child=1 -3
leaf_value=-7.6051057476353829 -2.8302428750741733 -7.6051057476353829
leaf_weight=1.5141795719973741 0.010471504647284746 0.068588355439715198
leaf_count=2892 20 131
internal_value=-7.57372 -6.97267
internal_weight=1.59324 0.0790599
internal_count=3043 151
is_linear=0
shrinkage=1


Tree=19
num_leaves=7
num_cat=0
split_feature=26 27 0 0 1 0
split_gain=42.4333 384.704 4.44089e-16 2.22045e-16 2.22045e-16 6.93889e-18
threshold=15.232577323913576 10.830883502960207 26.828820228576664 25.594036102294925 0.52876338362693798 26.390454292297367
decision_type=2 2 2 2 2 2
left_child=2 -2 3 -1 -4 -5
right_child=1 -3 4 5 -6 -7
leaf_value=-6.9119847600937812 0.25406293016301085 -6.9119847600937803 -6.9119847600937812 -6.9119847600937794 -6.9119847600937794 -6.9119847600937785
leaf_weight=1.4966409059707078 0.020932040642946848 0.17792234546504915 1.3909341007238252 0.035584469093009941 0.039770877221599332 0.023025244707241654
leaf_count=1430 20 170 1329 34 38 22
internal_value=-6.86489 -6.15766 -6.91198 -6.91198 -6.91198 -6.91198
internal_weight=3.18481 0.198854 2.98596 1.55525 1.4307 0.0586097
internal_count=3043 190 2853 1486 1367 56
is_linear=0
shrinkage=1


Tree=20
num_leaves=5
num_cat=0
split_feature=11 7 0 0
split_gain=58.568 26.7752 226.265 4.44089e-16
threshold=53.136398315429695 124.14465332031251 7.1237642765045175 23.112425804138187
decision_type=2 2 2 2
left_child=1 3 -3 -1
right_child=-2 2 -4 -5
leaf_value=-7.1996537316792599 -4.1672005724397323 -0.83150209727627278 -7.1996537316792599 -7.1996537316792599
leaf_weight=1.0136379463365313 0.016488301218487211 0.015703144017606863 0.12483999493997544 1.2185639757663009
leaf_count=1291 21 20 159 1552
internal_value=-7.13687 -7.15751 -6.48813 -7.19965
internal_weight=2.38923 2.37275 0.140543 2.2322
internal_count=3043 3022 179 2843
is_linear=0
shrinkage=1


Tree=21
num_leaves=12
num_cat=0
split_feature=11 1 14 6 0 0 1 1 1 3 0
split_gain=43.9375 28.0087 17.7081 29.7459 4.44089e-16 2.22045e-16 2.22045e-16 2.22045e-16 2.22045e-16 1.11022e-16 6.93889e-18
threshold=53.136398315429695 0.58244603872299205 20.251309394836429 -317.46629333496088 29.426054000854496 28.224648475646976 0.18047075718641284 0.54246953129768383 0.27930951118469244 3076.363647460938 28.868684768676761
decision_type=2 2 2 2 2 2 2 2 2 2 2
left_child=1 2 4 -4 5 6 9 8 -6 -1 -7
right_child=-2 -3 3 -5 7 10 -8 -9 -10 -11 -12
leaf_value=-6.9119847600937803 -4.6370489854090788 -5.4642983580216766 -6.9119847600937794 -4.523302196674849 -6.9119847600937812 -6.9119847600937794 -6.9119847600937812 -6.9119847600937785 -6.9119847600937803 -6.9119847600937794 -6.9119847600937785
leaf_weight=0.54632626078091684 0.021978642675094195 0.034537867060862371 0.034537867060862482 0.020932040642946848 0.83204861555714138 0.032444662996567897 1.0549748484045265 0.02093204064294707 0.52748742420226336 0.033491265028715134 0.02511844877153635
leaf_count=522 21 33 33 20 795 31 1008 20 504 32 24
internal_value=-6.86489 -6.88037 -6.896 -6.0106 -6.91198 -6.91198 -6.91198 -6.91198 -6.91198 -6.91198 -6.91198
internal_weight=3.18481 3.16283 3.12829 0.0554699 3.07282 1.69236 1.63479 1.38047 1.35954 0.579818 0.0575631
internal_count=3043 3022 2989 53 2936 1617 1562 1319 1299 554 55
is_linear=0
shrinkage=1


Tree=22
num_leaves=8
num_cat=0
split_feature=11 4 0 3 7 3 0
split_gain=106.451 314.325 8.88178e-16 2.22045e-16 2.22045e-16 2.77556e-17 6.93889e-18
threshold=37.146003723144538 5428.9047851562509 23.510136604309086 2870.387084960938 146.60041809082034 3264.973510742188 29.981224060058597
decision_type=2 2 2 2 2 2 2
left_child=2 -2 4 -4 -1 -5 -3
right_child=1 6 3 5 -6 -7 -8
leaf_value=-7.1996537316792599 -0.12392969345361671 -7.199653731679259 -7.1996537316792599 -7.199653731679259 -7.1996537316792582 -7.1996537316792573 -7.1996537316792573
leaf_weight=1.0481848631752657 0.021199244423769303 0.039257860044017434 1.0850872516166417 0.12798062374349695 0.028265659231692664 0.01805861562024802 0.021199244423769414
leaf_count=1335 27 50 1382 163 36 23 27
internal_value=-7.13687 -5.36269 -7.19965 -7.19965 -7.19965 -7.19965 -7.19965
internal_weight=2.38923 0.0816563 2.30758 1.23113 1.07645 0.146039 0.0604571
internal_count=3043 104 2939 1568 1371 186 77
is_linear=0
shrinkage=1


Tree=23
num_leaves=12
num_cat=0
split_feature=16 3 18 19 0 0 1 2 6 8 3
split_gain=91.7962 95.5473 46.8213 39.4911 4.44089e-16 2.22045e-16 2.22045e-16 2.22045e-16 2.22045e-16 2.77556e-17 1.38778e-17
threshold=-26.603302001953121 2491.189086914063 -22.053171157836911 9.4348187446594256 29.981224060058597 28.868684768676761 0.52876338362693798 1675.1478271484377 -172.56745910644528 -19.459835052490231 2086.5837402343755
decision_type=2 2 2 2 2 2 2 2 2 2 2
left_child=1 -1 -2 -4 5 8 7 10 -5 -10 -6
right_child=2 -3 3 4 6 -7 -8 -9 9 -11 -12
leaf_value=-6.9119847600937776 -4.5233021966749476 -2.1346196332559444 -4.9214159572446565 -6.9119847600937812 -6.9119847600937803 -6.9119847600937794 -6.9119847600937794 -6.9119847600937812 -6.9119847600937803 -6.9119847600937812 -6.9119847600937785
leaf_weight=0.020932040642947292 0.020932040642947736 0.020932040642946959 0.025118448771536239 1.5552506197709597 0.076401948346756288 0.041864081285894028 0.038724275189451984 1.2224311735481022 0.070122336153872311 0.06593592802528192 0.026165050803683698
leaf_count=20 20 20 24 1486 73 40 37 1168 67 63 25
internal_value=-6.84919 -4.5233 -6.88017 -6.89597 -6.91198 -6.91198 -6.91198 -6.91198 -6.91198 -6.91198 -6.91198
internal_weight=3.18481 0.0418641 3.14295 3.12201 3.0969 1.73317 1.36372 1.325 1.69131 0.136058 0.102567
internal_count=3043 40 3003 2983 2959 1656 1303 1266 1616 130 98
is_linear=0
shrinkage=1


Tree=24
num_leaves=8
num_cat=0
split_feature=12 6 11 0 0 2 3
split_gain=31.9939 33.9959 22.2326 8.88178e-16 4.44089e-16 2.22045e-16 2.22045e-16
threshold=34.531101226806648 -650.89614868164051 48.587938308715827 26.749410629272464 22.464535713195804 5547.8701171875009 2304.8557128906255
decision_type=2 2 2 2 2 2 2
left_child=1 -1 3 4 6 -5 -3
right_child=-2 2 -4 5 -6 -7 -8
leaf_value=-4.9511754636266518 -5.0267267178418509 -6.6888543105774261 -5.5644738801974674 -6.6888543105774261 -6.6888543105774261 -6.6888543105774252 -6.6888543105774261
leaf_weight=0.028774016536773028 0.030081926379352697 0.7075792248360816 0.044468934647738823 1.811455131974071 0.26681360788643371 0.068011311814189068 1.0227854968979952
leaf_count=22 23 541 34 1385 204 52 782
internal_value=-6.65117 -6.66354 -6.6761 -6.68885 -6.68885 -6.68885 -6.68885
internal_weight=3.97997 3.94989 3.92111 3.87664 1.99718 1.87947 1.73036
internal_count=3043 3020 2998 2964 1527 1437 1323
is_linear=0
shrinkage=1


Tree=25
num_leaves=7
num_cat=0
split_feature=31 2 16 1 2 3
split_gain=96.5514 154.833 23.6051 39.6508 8.88178e-16 2.77556e-17
threshold=14.141375541687013 2957.712768554688 19.687079429626468 0.18047075718641284 1533.186218261719 1269.0018310546877
decision_type=2 2 2 2 2 2
left_child=2 -2 4 -4 5 -1
right_child=1 -3 3 -5 -6 -7
leaf_value=-7.1996537316792555 -0.83150209727627278 -7.1996537316792582 -4.015577914477765 -7.1996537316792582 -7.1996537316792599 -7.199653731679259
leaf_weight=0.023554716026411682 0.015703144017606863 0.024339873227290809 0.015703144017606863 0.025910187629051507 2.1701745032332838 0.11384779412765056
leaf_count=30 20 31 20 33 2764 145
internal_value=-7.13687 -4.70234 -7.17837 -5.99812 -7.19965 -7.19965
internal_weight=2.38923 0.040043 2.34919 0.0416133 2.30758 0.137403
internal_count=3043 51 2992 53 2939 175
is_linear=0
shrinkage=1


Tree=26
num_leaves=5
num_cat=0
split_feature=1 5 1 1
split_gain=30.3668 113.517 4.44089e-16 1.38778e-17
threshold=0.47310522198677069 0.0080942246131598967 0.061318412423133857 0.58244603872299205
decision_type=2 2 2 2
left_child=2 -2 -1 -3
right_child=1 3 -4 -5
leaf_value=-7.199653731679259 -3.5607099405917504 -7.199653731679259 -7.1996537316792599 -7.1996537316792573
leaf_weight=0.1680236409883954 0.027480502030812093 0.076945405686274171 2.096369726350531 0.020414087222889066
leaf_count=214 35 98 2670 26
internal_value=-7.1578 -6.39863 -7.19965 -7.19965
internal_weight=2.38923 0.12484 2.26439 0.0973595
internal_count=3043 159 2884 124
is_linear=0
shrinkage=1


Tree=27
num_leaves=5
num_cat=0
split_feature=16 0 0 0
split_gain=164.784 1.11022e-16 2.77556e-17 2.77556e-17
threshold=25.598947525024418 13.917301654815676 13.41736936569214 11.7811336517334
decision_type=2 2 2 2
left_child=1 2 3 -1
right_child=-2 -3 -4 -5
leaf_value=-8.2982398447492471 0.0036960432586408132 -8.2982398447492489 -8.2982398447492436 -8.2982398447492471
leaf_weight=0.17832404203363694 0.0060226915811654172 0.57006085096509196 0.0091649654495995492 0.033255731774261221
leaf_count=681 23 2177 35 127
internal_value=-8.23549 -8.29824 -8.29824 -8.29824
internal_weight=0.796828 0.790806 0.220745 0.21158
internal_count=3043 3020 843 808
is_linear=0
shrinkage=1


Tree=28
num_leaves=13
num_cat=0
split_feature=8 30 18 20 13 3 2 16 16 1 1 1
split_gain=41.3316 88.6468 7.45831 30.0077 8.04525 29.9183 4.44089e-16 2.22045e-16 5.55112e-17 1.38778e-17 1.38778e-17 6.93889e-18
threshold=46.455060958862312 5.6037521362304696 13.667481899261476 10.793668746948244 25.942870140075687 2024.265563964844 3609.1721191406255 -0.24481299519538877 8.9760470390319842 0.30110494792461401 0.34424927830696112 0.18047075718641284
decision_type=2 2 2 2 2 2 2 2 2 2 2 2
left_child=2 -2 4 -4 6 -6 -1 -8 -9 -5 -7 -3
right_child=1 11 3 9 5 10 7 8 -10 -11 -12 -13
leaf_value=-6.6888543105774261 -3.3645991251062775 -6.6888543105774243 -4.7774075789315233 -6.6888543105774252 -4.7774075789315233 -6.6888543105774252 -6.6888543105774261 -6.6888543105774261 -6.6888543105774261 -6.6888543105774243 -6.6888543105774243 -6.6888543105774243
leaf_weight=2.1488958713598567 0.030081926379352697 0.032697746064513922 0.026158196851611026 0.065395492129027843 0.026158196851611026 0.061471762601286173 1.029325046110898 0.3635989362373947 0.10594069724902511 0.030081926379352808 0.032697746064513922 0.027466106694191694
leaf_count=1643 23 25 20 50 20 47 787 278 81 23 25 21
internal_value=-6.6386 -5.58077 -6.66315 -6.27779 -6.67558 -6.27332 -6.68885 -6.68885 -6.68885 -6.68885 -6.68885 -6.68885
internal_weight=3.97997 0.0902458 3.88972 0.121636 3.76809 0.120328 3.64776 1.49886 0.46954 0.0954774 0.0941695 0.0601639
internal_count=3043 69 2974 93 2881 92 2789 1146 359 73 72 46
is_linear=0
shrinkage=1


Tree=29
num_leaves=8
num_cat=0
split_feature=2 31 7 0 16 1 1
split_gain=45.5944 22.9355 16.7393 30.0797 18.0484 29.3992 4.44089e-16
threshold=6522.9060058593759 14.67739772796631 153.75960540771487 17.93709754943848 19.687079429626468 0.19477300345897677 0.026221150532364849
decision_type=2 2 2 2 2 2 2
left_child=1 2 4 -4 6 -6 -1
right_child=-2 -3 3 -5 5 -7 -8
leaf_value=-6.9119847600937767 -4.523302196674849 -5.6870193429558418 -4.523302196674849 -6.9119847600937794 -4.523302196674849 -6.9119847600937794 -6.9119847600937812
leaf_weight=0.040817479253748679 0.020932040642946848 0.040817479253746458 0.020932040642946848 0.03558446909300983 0.020932040642946848 0.033491265028715134 2.9713031692663208
leaf_count=39 20 39 20 34 20 32 2839
internal_value=-6.84919 -6.86457 -6.87996 -6.02729 -6.89568 -5.99326 -6.91198
internal_weight=3.18481 3.16388 3.12306 0.0565165 3.06654 0.0544233 3.01212
internal_count=3043 3023 2984 54 2930 52 2878
is_linear=0
shrinkage=1


Tree=30
num_leaves=6
num_cat=0
split_feature=9 10 0 0 1
split_gain=85.303 294.175 2.22045e-16 1.38778e-17 6.93889e-18
threshold=65.25995254516603 -30.802096366882321 5.7464852333068857 5.1868028640747079 0.3580558449029923
decision_type=2 2 2 2 2
left_child=2 -2 3 -1 -3
right_child=1 4 -4 -5 -6
leaf_value=-7.6051057476353829 1.944619997487032 -7.6051057476353812 -7.6051057476353829 -7.6051057476353803 -7.6051057476353785
leaf_weight=0.090578515199012943 0.010471504647284746 0.024608035921119265 1.4403554642340166 0.016754407435655594 0.010471504647284746
leaf_count=173 20 47 2751 32 20
internal_value=-7.54234 -5.40977 -7.60511 -7.60511 -7.60511
internal_weight=1.59324 0.045551 1.54769 0.107333 0.0350795
internal_count=3043 87 2956 205 67
is_linear=0
shrinkage=1


Tree=31
num_leaves=4
num_cat=0
split_feature=18 2 2
split_gain=157.865 1.11022e-16 1.11022e-16
threshold=21.232378005981449 6268.8942871093759 5783.1135253906259
decision_type=2 2 2
left_child=1 2 -1
right_child=-2 -3 -4
leaf_value=-8.2982398447492489 -0.34221795207496442 -8.2982398447492418 -8.2982398447492436
leaf_weight=0.77326122779049911 0.0062845477368682614 0.0081175408267881721 0.0091649654495995492
leaf_count=2953 24 31 35
internal_value=-8.23549 -8.29824 -8.29824
internal_weight=0.796828 0.790544 0.782426
internal_count=3043 3019 2988
is_linear=0
shrinkage=1


Tree=32
num_leaves=11
num_cat=0
split_feature=18 5 28 9 14 5 0 0 0 1
split_gain=79.336 108.01 10.5644 36.2619 6.59583 40.8499 8.88178e-16 5.55112e-17 1.38778e-17 6.93889e-18
threshold=-21.061202049255368 0.030466740019619468 4.1875133514404306 25.723053932189945 14.795204639434816 0.0056707772891968497 7.5695464611053476 7.1237642765045175 25.188367843627933 0.24288588017225268
decision_type=2 2 2 2 2 2 2 2 2 2
left_child=1 -1 3 -2 6 -6 7 -4 -7 -10
right_child=2 -3 4 -5 5 8 -8 -9 9 -11
leaf_value=-6.9119847600937785 -6.9119847600937794 -2.1346196332559444 -6.9119847600937803 -4.5233021966748614 -4.523302196674849 -6.9119847600937803 -6.9119847600937812 -6.9119847600937794 -6.9119847600937794 -6.9119847600937785
leaf_weight=0.027211652835831379 0.065935928025283252 0.020932040642946959 0.27316313039045859 0.020932040642946959 0.020932040642946848 0.065935928025282919 2.5913866315968335 0.040817479253746569 0.03558446909300983 0.021978642675094306
leaf_count=26 63 20 261 20 20 63 2476 39 34 21
internal_value=-6.84919 -4.83487 -6.8801 -6.3364 -6.89559 -6.5658 -6.91198 -6.91198 -6.91198 -6.91198
internal_weight=3.18481 0.0481437 3.13667 0.086868 3.0498 0.144431 2.90537 0.313981 0.123499 0.0575631
internal_count=3043 46 2997 83 2914 138 2776 300 118 55
is_linear=0
shrinkage=1


Tree=33
num_leaves=7
num_cat=0
split_feature=21 6 1 9 24 0
split_gain=105.732 233.073 24.7191 6.629 31.3408 8.88178e-16
threshold=43.792301177978523 -350.18522644042963 0.58244603872299205 61.40300369262696 8.646189212799074 10.269025325775148
decision_type=2 2 2 2 2 2
left_child=2 -2 3 5 -5 -1
right_child=1 -3 -4 4 -6 -7
leaf_value=-6.6888543105774261 -6.6888543105774252 -0.95451411563972055 -5.4145564894801428 -4.7774075789315233 -6.6888543105774261 -6.6888543105774261
leaf_weight=0.70496340515092182 0.054932213388383389 0.026158196851611026 0.039237295277416595 0.026158196851611026 0.11901979567483068 3.0095005477778614
leaf_count=539 42 20 30 20 91 2301
internal_value=-6.62604 -4.83907 -6.66321 -6.6759 -6.34445 -6.68885
internal_weight=3.97997 0.0810904 3.89888 3.85964 0.145178 3.71446
internal_count=3043 62 2981 2951 111 2840
is_linear=0
shrinkage=1


Tree=34
num_leaves=15
num_cat=0
split_feature=16 6 6 10 26 22 0 0 1 5 0 1 0 1
split_gain=31.501 27.061 6.07016 31.4023 1.85844 36.1051 4.44089e-16 2.22045e-16 2.22045e-16 2.22045e-16 5.55112e-17 2.77556e-17 1.38778e-17 6.93889e-18
threshold=25.598947525024418 -86.499462127685533 -570.07772827148426 -25.112617492675778 5.8685934543609628 16.933568000793461 27.977097511291507 27.023718833923343 0.30110494792461401 0.014360736589878799 29.426054000854496 0.25511108338832861 29.61943340301514 0.35055474936962133
decision_type=2 2 2 2 2 2 2 2 2 2 2 2 2 2
left_child=1 2 3 -1 5 10 7 9 -8 -6 -4 -12 -5 -14
right_child=-2 -3 4 12 6 -7 8 -9 -10 -11 11 -13 13 -15
leaf_value=-4.7774075789315313 -5.0267267178418509 -5.2729678426915596 -6.6888543105774261 -6.6888543105774252 -6.6888543105774261 -4.7774075789315313 -6.6888543105774261 -6.6888543105774252 -6.6888543105774261 -6.6888543105774261 -6.6888543105774261 -6.6888543105774252 -6.6888543105774243 -6.6888543105774243
leaf_weight=0.026158196851611137 0.030081926379352697 0.035313565749674924 0.28512434568256217 0.06147176260128695 0.63695209333673108 0.026158196851611137 1.0554832429625092 0.039237295277416817 0.53624303545802843 1.029325046110898 0.11901979567483068 0.040545205119997263 0.032697746064513922 0.026158196851611137
leaf_count=20 23 27 218 47 487 20 807 30 410 787 91 31 25 20
internal_value=-6.6386 -6.65088 -6.66331 -6.34752 -6.67558 -6.58266 -6.68885 -6.68885 -6.68885 -6.68885 -6.68885 -6.68885 -6.68885 -6.68885
internal_weight=3.97997 3.94989 3.91457 0.146486 3.76809 0.470848 3.29724 1.70551 1.59173 1.66628 0.444689 0.159565 0.120328 0.0588559
internal_count=3043 3020 2993 112 2881 360 2521 1304 1217 1274 340 122 92 45
is_linear=0
shrinkage=1


Tree=35
num_leaves=8
num_cat=0
split_feature=16 22 0 0 0 1 1
split_gain=139.042 19.5889 27.868 4.44089e-16 2.22045e-16 2.22045e-16 5.55112e-17
threshold=-28.543934822082516 32.173742294311531 28.224648475646976 27.023718833923343 23.209817886352543 0.33037802577018743 0.34183493256568914
decision_type=2 2 2 2 2 2 2
left_child=-1 3 -3 4 -2 -5 -7
right_child=1 2 -4 5 -6 6 -8
leaf_value=-3.373195777250936 -6.9119847600937812 -4.523302196674849 -6.9119847600937794 -6.9119847600937812 -6.9119847600937803 -6.9119847600937794 -6.9119847600937803
leaf_weight=0.028258254867978727 1.443264202331193 0.020932040642946848 0.029304856900125742 1.092652521561831 0.18420195765793335 0.030351458932273201 0.3558446909300983
leaf_count=27 1379 20 28 1044 176 29 340
internal_value=-6.86489 -6.89614 -5.9167 -6.91198 -6.91198 -6.91198 -6.91198
internal_weight=3.18481 3.15655 0.0502369 3.10631 1.62747 1.47885 0.386196
internal_count=3043 3016 48 2968 1555 1413 369
is_linear=0
shrinkage=1


Tree=36
num_leaves=3
num_cat=0
split_feature=12 0
split_gain=164.784 1.11022e-16
threshold=34.531101226806648 6.8512020111083993
decision_type=2 2
left_child=1 -1
right_child=-2 -3
leaf_value=-8.2982398447492471 0.0036960432586408132 -8.2982398447492489
leaf_weight=0.073057867441093549 0.0060226915811654172 0.71774772278149612
leaf_count=279 23 2741
internal_value=-8.23549 -8.29824
internal_weight=0.796828 0.790806
internal_count=3043 3020
is_linear=0
shrinkage=1


Tree=37
num_leaves=3
num_cat=0
split_feature=0 3
split_gain=1.11022e-16 5.55112e-17
threshold=29.981224060058597 2915.3962402343755
decision_type=2 2
left_child=1 -1
right_child=-2 -3
leaf_value=-8.2982398447492489 -8.2982398447492489 -8.2982398447492471
leaf_weight=0.38990381584153511 0.35088724864181131 0.056037217320408672
leaf_count=1489 1340 214
internal_value=-8.29824 -8.29824
internal_weight=0.796828 0.445941
internal_count=3043 1703
is_linear=0
shrinkage=1


Tree=38
num_leaves=7
num_cat=0
split_feature=21 7 3 4 4 1
split_gain=20.0889 73.5439 11.1437 83.7075 2.22045e-16 6.93889e-18
threshold=41.256074905395515 66.020420074462905 3076.363647460938 7182.8647460937509 2186.781372070313 0.31116577982902532
decision_type=2 2 2 2 2 2
left_child=2 5 4 -4 -1 -2
right_child=1 -3 3 -5 -6 -7
leaf_value=-7.6051057476353821 -7.6051057476353812 -2.8302428750741733 -2.8302428750741235 -7.6051057476353829 -7.6051057476353829 -7.6051057476353785
leaf_weight=0.041362443356774636 0.024608035921119265 0.010471504647284746 0.010471504647284635 0.074347682995721698 1.4215067558689041 0.010471504647284746
leaf_count=79 47 20 20 142 2715 20
internal_value=-7.54234 -6.50744 -7.5728 -7.01562 -7.60511 -7.60511
internal_weight=1.59324 0.045551 1.54769 0.0848192 1.46287 0.0350795
internal_count=3043 87 2956 162 2794 67
is_linear=0
shrinkage=1


Tree=39
num_leaves=10
num_cat=0
split_feature=17 18 3 18 28 0 6 0 2
split_gain=33.3059 18.333 44.0872 7.57734 55.6713 4.44089e-16 2.22045e-16 1.38778e-17 6.93889e-18
threshold=22.268918991088871 -18.383321762084957 2670.1640625000005 10.928679943084719 5.6337084770202646 26.828820228576664 -152.33801269531247 29.981224060058597 3595.502563476563
decision_type=2 2 2 2 2 2 2 2 2
left_child=1 2 -1 5 -5 -3 -7 -6 -9
right_child=-2 3 -4 4 7 6 -8 8 -10
leaf_value=-7.1996537316792573 -5.4307227221228294 -7.1996537316792599 -4.0155779144777872 -4.015577914477765 -7.199653731679259 -7.1996537316792599 -7.1996537316792582 -7.1996537316792582 -7.1996537316792564
leaf_weight=0.035332074039616468 0.028265659231692442 1.1416185700800277 0.015703144017606974 0.015703144017606863 0.058101632865145802 1.0214895183453334 0.021984401624649652 0.035332074039615691 0.015703144017606974
leaf_count=45 36 1454 20 20 74 1301 28 45 20
internal_value=-7.13687 -7.1573 -6.21994 -7.17801 -6.79914 -7.19965 -7.19965 -7.19965 -7.19965
internal_weight=2.38923 2.36097 0.0510352 2.30993 0.12484 2.18509 1.04347 0.109137 0.0510352
internal_count=3043 3007 65 2942 159 2783 1329 139 65
is_linear=0
shrinkage=1


Tree=40
num_leaves=9
num_cat=0
split_feature=10 19 16 0 2 2 0 3
split_gain=62.4287 6.8984 56.3618 4.44089e-16 2.22045e-16 2.77556e-17 1.38778e-17 1.38778e-17
threshold=42.530265808105476 93.823921203613295 6.4410095214843759 16.717709541320804 4864.3977050781259 5211.9968261718759 29.981224060058597 2828.7167968750005
decision_type=2 2 2 2 2 2 2 2
left_child=1 3 6 -1 -5 -6 -3 -7
right_child=-2 2 -4 4 5 7 -8 -9
leaf_value=-7.1996537316792599 -4.015577914477765 -7.199653731679259 -4.0155779144777872 -7.1996537316792599 -7.199653731679259 -7.199653731679259 -7.199653731679259 -7.1996537316792573
leaf_weight=0.74040324043016981 0.015703144017606863 0.082441506092436501 0.015703144017606974 1.3324117698939515 0.076945405686274282 0.068308676476590335 0.038472702843137085 0.018843772821128368
leaf_count=943 20 105 20 1697 98 87 49 24
internal_value=-7.1578 -7.17859 -6.83367 -7.19965 -7.19965 -7.19965 -7.19965 -7.19965
internal_weight=2.38923 2.37353 0.136617 2.23691 1.49651 0.164098 0.120914 0.0871524
internal_count=3043 3023 174 2849 1906 209 154 111
is_linear=0
shrinkage=1


Tree=41
num_leaves=5
num_cat=0
split_feature=3 11 0 1
split_gain=75.1228 114.567 2.22045e-16 5.55112e-17
threshold=1206.5437011718752 0.43993303179740911 29.786711692810062 0.4428867250680924
decision_type=2 2 2 2
left_child=1 -1 -2 -4
right_child=2 -3 3 -5
leaf_value=-8.2982398447492418 -8.2982398447492489 1.2489864264595845 -8.2982398447492489 -8.2982398447492471
leaf_weight=0.0078556846710853279 0.43651421155664138 0.0052371231140568861 0.31815522917895578 0.029066033283015713
leaf_count=30 1667 20 1215 111
internal_value=-8.23549 -4.47935 -8.29824 -8.29824
internal_weight=0.796828 0.0130928 0.783735 0.347221
internal_count=3043 50 2993 1326
is_linear=0
shrinkage=1


Tree=42
num_leaves=4
num_cat=0
split_feature=18 0 1
split_gain=397.281 4.44089e-16 2.22045e-16
threshold=18.514244079589847 28.075669288635257 0.52876338362693798
decision_type=2 2 2
left_child=1 -1 -3
right_child=-2 2 -4
leaf_value=-6.9119847600937812 -1.883179363422248 -6.9119847600937812 -6.9119847600937794
leaf_weight=1.6797962615964939 0.03977087722159911 1.4254719677846877 0.039770877221599332
leaf_count=1605 38 1362 38
internal_value=-6.84919 -6.91198 -6.91198
internal_weight=3.18481 3.14504 1.46524
internal_count=3043 3005 1400
is_linear=0
shrinkage=1


Tree=43
num_leaves=13
num_cat=0
split_feature=3 18 28 9 6 2 0 0 3 0 0 0
split_gain=37.6359 38.2391 10.5637 36.2619 5.46263 41.9829 4.44089e-16 2.22045e-16 2.22045e-16 2.77556e-17 1.38778e-17 6.93889e-18
threshold=3440.5805664062505 -24.175458908081051 4.1875133514404306 25.723053932189945 -168.26205444335935 4504.0151367187509 29.981224060058597 28.526507377624515 2701.334350585938 29.981224060058597 21.375260353088382 29.270113945007328
decision_type=2 2 2 2 2 2 2 2 2 2 2 2
left_child=1 -1 3 -3 6 9 7 -4 -8 10 -6 -9
right_child=-2 2 4 -5 5 -7 8 11 -10 -11 -12 -13
leaf_value=-4.9214159572447258 -4.9214159572446565 -6.9119847600937794 -6.9119847600937812 -4.5233021966748614 -6.9119847600937812 -4.5233021966748614 -6.9119847600937812 -6.9119847600937794 -6.9119847600937803 -6.9119847600937794 -6.9119847600937785 -6.9119847600937785
leaf_weight=0.025118448771537127 0.025118448771536239 0.065935928025283252 1.5029205181635927 0.020932040642946959 0.088961172732523575 0.020932040642946959 1.0549748484045265 0.033491265028715245 0.26060390600468974 0.041864081285893917 0.020932040642946959 0.023025244707241654
leaf_count=24 24 63 1436 20 85 20 1008 32 249 40 20 22
internal_value=-6.84919 -6.86451 -6.88008 -6.3364 -6.89558 -6.62245 -6.91198 -6.91198 -6.91198 -6.91198 -6.91198 -6.91198
internal_weight=3.18481 3.15969 3.13457 0.086868 3.04771 0.172689 2.87502 1.55944 1.31558 0.151757 0.109893 0.0565165
internal_count=3043 3019 2995 83 2912 165 2747 1490 1257 145 105 54
is_linear=0
shrinkage=1


Tree=44
num_leaves=1
num_cat=0
split_feature=
split_gain=
threshold=
decision_type=
left_child=
right_child=
leaf_value=-34.538776391283193
leaf_weight=
leaf_count=3821
internal_value=
internal_weight=
internal_count=
is_linear=0
shrinkage=1


Tree=45
num_leaves=6
num_cat=0
split_feature=25 16 1 1 2
split_gain=46.9075 21.8983 40.5246 18.8674 44.3841
threshold=3.7560917139053349 19.687079429626468 0.18047075718641284 0.54246953129768383 5883.8845214843759
decision_type=2 2 2 2 2
left_child=-1 3 -3 -2 -5
right_child=1 2 -4 4 -6
leaf_value=-4.7503646415242837 -7.1996537316792599 -4.015577914477765 -7.1996537316792582 -4.015577914477765 -7.1996537316792582
leaf_weight=0.020414087222889399 2.2738152537494907 0.015703144017606863 0.027480502030812204 0.015703144017606863 0.036117231240496039
leaf_count=26 2896 20 35 20 46
internal_value=-7.13687 -7.15744 -6.04181 -7.17815 -6.23478
internal_weight=2.38923 2.36882 0.0431836 2.32564 0.0518204
internal_count=3043 3017 55 2962 66
is_linear=0
shrinkage=1


Tree=46
num_leaves=5
num_cat=0
split_feature=5 26 6 1
split_gain=71.5819 31.7389 63.1253 2.22045e-16
threshold=0.00079925390309654187 4.1099469661712655 -285.60559082031244 0.045060148462653167
decision_type=2 2 2 2
left_child=-1 2 -2 -3
right_child=1 3 -4 -5
leaf_value=-3.9321343072036319 -7.6051057476353812 -7.6051057476353829 -2.8302428750741235 -7.6051057476353829
leaf_weight=0.013612956041470281 0.020419434062205255 0.063352603116072603 0.010471504647284635 1.485382934217341
leaf_count=26 39 121 20 2837
internal_value=-7.54234 -7.57345 -5.98651 -7.60511
internal_weight=1.59324 1.57963 0.0308909 1.54874
internal_count=3043 3017 59 2958
is_linear=0
shrinkage=1


Tree=47
num_leaves=3
num_cat=0
split_feature=27 9
split_gain=18.8616 76.008
threshold=4.3334414958953866 -14.889746665954588
decision_type=2 2
left_child=1 -1
right_child=-2 -3
leaf_value=-2.8302428750741733 -7.6051057476353829 -7.6051057476353821
leaf_weight=0.010471504647284746 1.5419290593126787 0.040838868124410621
leaf_count=20 2945 78
internal_value=-7.57372 -6.63064
internal_weight=1.59324 0.0513104
internal_count=3043 98
is_linear=0
shrinkage=1


Tree=48
num_leaves=8
num_cat=0
split_feature=25 2 11 0 1 3 3
split_gain=71.5819 13.9467 80.9175 2.22045e-16 1.11022e-16 1.11022e-16 1.38778e-17
threshold=3.7560917139053349 1363.8161621093752 25.896752357482914 29.895124435424808 0.5591925084590913 1857.3336181640627 1790.0879516601565
decision_type=2 2 2 2 2 2 2
left_child=-1 2 -2 5 -5 6 -3
right_child=1 3 -4 4 -6 -7 -8
leaf_value=-3.9321343072036319 -7.6051057476353829 -7.6051057476353829 -2.8302428750741733 -7.6051057476353829 -7.6051057476353794 -7.6051057476353829 -7.6051057476353812
leaf_weight=0.013612956041470281 0.05811685079243023 0.071206231601536052 0.010471504647284746 0.6581340670818463 0.012565805576741695 0.74923615751322359 0.019895858829841018
leaf_count=26 111 136 20 1257 24 1431 38
internal_value=-7.54234 -7.57345 -6.87612 -7.60511 -7.60511 -7.60511 -7.60511
internal_weight=1.59324 1.57963 0.0685884 1.51104 0.6707 0.840338 0.0911021
internal_count=3043 3017 131 2886 1281 1605 174
is_linear=0
shrinkage=1


Tree=49
num_leaves=7
num_cat=0
split_feature=31 17 0 0 1 0
split_gain=37.2796 24.1827 8.88178e-16 2.22045e-16 2.22045e-16 1.38778e-17
threshold=3.2715458869934086 -20.098696708679196 29.426054000854496 27.167346954345707 0.5591925084590913 28.868684768676761
decision_type=2 2 2 2 2 2
left_child=-1 -2 3 -3 -4 -5
right_child=1 2 4 5 -6 -7
leaf_value=-5.0010387093586504 -5.6870193429558675 -6.9119847600937812 -6.9119847600937812 -6.9119847600937803 -6.9119847600937785 -6.9119847600937785
leaf_weight=0.026165050803684031 0.040817479253747346 1.6274661599891254 1.3710486621130256 0.069075734121725074 0.025118448771536461 0.02511844877153635
leaf_count=25 39 1555 1310 66 24 24
internal_value=-6.88059 -6.89616 -6.91198 -6.91198 -6.91198 -6.91198
internal_weight=3.18481 3.15864 3.11783 1.72166 1.39617 0.0941942
internal_count=3043 3018 2979 1645 1334 90
is_linear=0
shrinkage=1


Tree=50
num_leaves=15
num_cat=0
split_feature=18 1 11 21 1 22 22 0 0 1 0 0 1 0
split_gain=14.0524 31.5792 14.9153 73.5459 100.097 4.63086 42.7972 4.44089e-16 4.44089e-16 2.22045e-16 2.77556e-17 2.77556e-17 2.77556e-17 6.93889e-18
threshold=-19.55621242523193 0.36887565255165106 29.385027885437015 10.908866882324221 0.30936102569103247 25.121014595031742 25.626200675964359 29.981224060058597 24.022380828857425 0.5591925084590913 14.596485614776613 18.668253898620609 0.21536412835121158 12.326008796691896
decision_type=2 2 2 2 2 2 2 2 2 2 2 2 2 2
left_child=1 -1 5 4 -4 7 -7 8 -2 -9 -5 13 -10 -8
right_child=2 -3 3 10 -6 6 11 9 12 -11 -12 -13 -14 -15
leaf_value=-6.9119847600937794 -6.9119847600937812 -4.5233021966748614 -2.1346196332559186 -6.9119847600937803 -6.9119847600937785 -4.523302196674849 -6.9119847600937785 -6.9119847600937812 -6.9119847600937803 -6.9119847600937785 -6.9119847600937803 -6.9119847600937803 -6.9119847600937803 -6.9119847600937785
leaf_weight=0.040817479253746902 1.2956933157984174 0.020932040642946959 0.020932040642946848 0.053376703639514744 0.023025244707241654 0.020932040642946848 0.02511844877153635 1.1544020414585245 0.088961172732524685 0.021978642675094417 0.13187185605056584 0.13187185605056584 0.13187185605056584 0.023025244707241654
leaf_count=39 1238 20 20 51 22 20 24 1103 85 21 126 126 126 22
internal_value=-6.84919 -6.10226 -6.86395 -6.4757 -4.63705 -6.89471 -6.66316 -6.91198 -6.91198 -6.91198 -6.91198 -6.91198 -6.91198 -6.91198
internal_weight=3.18481 0.0617495 3.12306 0.229206 0.0439573 2.89385 0.200948 2.69291 1.51653 1.17638 0.185249 0.180016 0.220833 0.0481437
internal_count=3043 59 2984 219 42 2765 192 2573 1449 1124 177 172 211 46
is_linear=0
shrinkage=1


Tree=51
num_leaves=5
num_cat=0
split_feature=21 10 1 1
split_gain=24.0357 165.654 1.11022e-16 6.93889e-18
threshold=6.8918099403381357 9.1408548355102557 0.58244603872299205 0.33253505825996404
decision_type=2 2 2 2
left_child=1 3 -2 -1
right_child=2 -3 -4 -5
leaf_value=-8.2982398447492471 -8.2982398447492489 1.2489864264595862 -8.2982398447492418 -8.2982398447492418
leaf_weight=0.02644747172598727 0.74864674915443175 0.0052371231140568844 0.0086412531381938607 0.0078556846710853279
leaf_count=101 2859 20 33 30
internal_value=-8.23549 -7.03371 -8.29824 -8.29824
internal_weight=0.796828 0.0395403 0.757288 0.0343032
internal_count=3043 151 2892 131
is_linear=0
shrinkage=1


Tree=52
num_leaves=4
num_cat=0
split_feature=7 19 2
split_gain=137.795 37.3378 152.49
threshold=168.75030517578128 107.12162399291994 2450.9858398437505
decision_type=2 2 2
left_child=1 -1 -3
right_child=-2 2 -4
leaf_value=-6.9119847600937812 -3.3731957772508814 -2.1346196332559186 -6.9119847600937803
leaf_weight=3.0529381277738148 0.028258254867978283 0.020932040642946848 0.082681560539640486
leaf_count=2917 27 20 79
internal_value=-6.84919 -6.8803 -5.94686
internal_weight=3.18481 3.15655 0.103614
internal_count=3043 3016 99
is_linear=0
shrinkage=1


Tree=53
num_leaves=4
num_cat=0
split_feature=18 2 2
split_gain=157.865 1.11022e-16 1.11022e-16
threshold=21.232378005981449 6268.8942871093759 5783.1135253906259
decision_type=2 2 2
left_child=1 2 -1
right_child=-2 -3 -4
leaf_value=-8.2982398447492489 -0.34221795207496442 -8.2982398447492418 -8.2982398447492436
leaf_weight=0.77326122779049911 0.0062845477368682614 0.0081175408267881721 0.0091649654495995492
leaf_count=2953 24 31 35
internal_value=-8.23549 -8.29824 -8.29824
internal_weight=0.796828 0.790544 0.782426
internal_count=3043 3019 2988
is_linear=0
shrinkage=1


Tree=54
num_leaves=3
num_cat=0
split_feature=0 3
split_gain=1.11022e-16 5.55112e-17
threshold=29.981224060058597 2915.3962402343755
decision_type=2 2
left_child=1 -1
right_child=-2 -3
leaf_value=-8.2982398447492489 -8.2982398447492489 -8.2982398447492471
leaf_weight=0.38990381584153511 0.35088724864181131 0.056037217320408672
leaf_count=1489 1340 214
internal_value=-8.29824 -8.29824
internal_weight=0.796828 0.445941
internal_count=3043 1703
is_linear=0
shrinkage=1


Tree=55
num_leaves=7
num_cat=0
split_feature=27 25 0 0 0 0
split_gain=73.6836 381.056 4.44089e-16 2.22045e-16 5.55112e-17 1.38778e-17
threshold=15.188000679016115 12.573704242706301 29.895124435424808 21.629205703735355 28.930657386779789 21.231610298156742
decision_type=2 2 2 2 2 2
left_child=2 -2 3 -1 -5 -3
right_child=1 5 -4 4 -6 -7
leaf_value=-7.1996537316792599 0.44212822960441045 -7.1996537316792582 -7.1996537316792599 -7.1996537316792599 -7.1996537316792582 -7.199653731679259
leaf_weight=0.9940090163145221 0.019628930022008606 0.033761759637854993 1.0010754311224443 0.25439093308523297 0.02355471602641046 0.062812576070427895
leaf_count=1266 25 43 1275 324 30 80
internal_value=-7.13687 -5.90881 -7.19965 -7.19965 -7.19965 -7.19965
internal_weight=2.38923 0.116203 2.27303 1.27195 0.277946 0.0965743
internal_count=3043 148 2895 1620 354 123
is_linear=0
shrinkage=1


Tree=56
num_leaves=5
num_cat=0
split_feature=15 1 23 5
split_gain=61.5999 56.6314 54.9508 4.44089e-16
threshold=27.790845870971683 0.016536871902644638 3.9979832172393803 0.0030187236843630676
decision_type=2 2 2 2
left_child=1 -1 -3 -4
right_child=-2 2 3 -5
leaf_value=-4.3050393524053048 -4.015577914477765 -4.4308921515040929 -7.1996537316792599 -7.1996537316792599
leaf_weight=0.017273458419368448 0.015703144017606863 0.018058615620248353 0.16802364098839495 2.1701745032332838
leaf_count=22 20 23 214 2764
internal_value=-7.13687 -7.15752 -7.17843 -7.19965
internal_weight=2.38923 2.37353 2.35626 2.3382
internal_count=3043 3023 3001 2978
is_linear=0
shrinkage=1


Tree=57
num_leaves=6
num_cat=0
split_feature=15 11 0 0 1
split_gain=62.4287 63.2602 4.44089e-16 2.22045e-16 2.22045e-16
threshold=27.790845870971683 53.136398315429695 29.981224060058597 28.997959136962894 0.5591925084590913
decision_type=2 2 2 2 2
left_child=1 2 3 -1 -4
right_child=-2 -3 4 -5 -6
leaf_value=-7.1996537316792599 -4.015577914477765 -4.015577914477765 -7.1996537316792599 -7.1996537316792573 -7.1996537316792564
leaf_weight=1.2931539098499349 0.015703144017606863 0.015703144017606863 1.0238449899479745 0.023554716026410571 0.017273458419367782
leaf_count=1647 20 20 1304 30 22
internal_value=-7.1578 -7.17859 -7.19965 -7.19965 -7.19965
internal_weight=2.38923 2.37353 2.35783 1.31671 1.04112
internal_count=3043 3023 3003 1677 1326
is_linear=0
shrinkage=1


Tree=58
num_leaves=1
num_cat=0
split_feature=
split_gain=
threshold=
decision_type=
left_child=
right_child=
leaf_value=-34.538776391283193
leaf_weight=
leaf_count=3821
internal_value=
internal_weight=
internal_count=
is_linear=0
shrinkage=1


Tree=59
num_leaves=9
num_cat=0
split_feature=15 9 21 0 0 0 0 0
split_gain=58.1479 187.444 513.763 8.88178e-16 2.22045e-16 2.77556e-17 2.77556e-17 6.93889e-18
threshold=15.83292865753174 -0.81781661510467518 15.924604415893556 29.786711692810062 27.862675666809086 12.422539710998537 29.981224060058597 8.2265305519104022
decision_type=2 2 2 2 2 2 2 2
left_child=3 2 -2 4 -1 7 -7 -3
right_child=1 5 -4 -5 -6 6 -8 -9
leaf_value=-6.9119847600937812 2.6427454935818906 -6.9119847600937794 -6.9119847600937794 -6.9119847600937812 -6.9119847600937803 -6.9119847600937803 -6.9119847600937803 -6.9119847600937785
leaf_weight=1.5583904258674013 0.020932040642946959 0.025118448771536239 0.042910683318041265 1.2956933157984167 0.077448550378903858 0.052330101607367396 0.088961172732524574 0.023025244707241654
leaf_count=1489 20 24 41 1238 74 50 85 22
internal_value=-6.84919 -6.12234 -3.77929 -6.91198 -6.91198 -6.91198 -6.91198 -6.91198
internal_weight=3.18481 0.253278 0.0638427 2.93153 1.63584 0.189435 0.141291 0.0481437
internal_count=3043 242 61 2801 1563 181 135 46
is_linear=0
shrinkage=1


Tree=60
num_leaves=7
num_cat=0
split_feature=26 0 0 2 2 2
split_gain=219.827 4.44089e-16 2.22045e-16 2.22045e-16 1.38778e-17 6.93889e-18
threshold=3.6608884334564213 29.981224060058597 28.868684768676761 1738.4226684570315 1468.6599121093752 1637.3828735351565
decision_type=2 2 2 2 2 2
left_child=-1 2 3 4 -2 -6
right_child=1 -3 -4 -5 5 -7
leaf_value=-1.6621305713289303 -7.199653731679259 -7.1996537316792599 -7.1996537316792582 -7.1996537316792599 -7.1996537316792582 -7.1996537316792573
leaf_weight=0.018058615620248353 0.067523519275709876 1.0481848631752655 0.032191445236094407 1.1722397009143604 0.033761759637854993 0.017273458419367671
leaf_count=23 86 1335 41 1493 43 22
internal_value=-7.1578 -7.19965 -7.19965 -7.19965 -7.19965 -7.19965
internal_weight=2.38923 2.37117 1.32299 1.2908 0.118559 0.0510352
internal_count=3043 3020 1685 1644 151 65
is_linear=0
shrinkage=1


Tree=61
num_leaves=4
num_cat=0
split_feature=20 0 1
split_gain=151.501 2.22045e-16 5.55112e-17
threshold=62.445047378540046 28.930657386779789 0.3580558449029923
decision_type=2 2 2
left_child=1 -1 -3
right_child=-2 2 -4
leaf_value=-8.2982398447492489 -0.66045882778188858 -8.2982398447492489 -8.2982398447492471
leaf_weight=0.43546678693383001 0.0065464038925711057 0.28175722353626043 0.073057867441093549
leaf_count=1663 25 1076 279
internal_value=-8.23549 -8.29824 -8.29824
internal_weight=0.796828 0.790282 0.354815
internal_count=3043 3018 1355
is_linear=0
shrinkage=1


Tree=62
num_leaves=6
num_cat=0
split_feature=8 16 4 6 0
split_gain=59.3963 9.01285 54.2472 4.44089e-16 1.38778e-17
threshold=65.297275543212905 14.099228382110597 3718.4794921875005 -136.92313385009763 29.981224060058597
decision_type=2 2 2 2 2
left_child=1 3 -3 -1 -4
right_child=-2 2 4 -5 -6
leaf_value=-7.1996537316792599 -4.1672005724397323 -4.015577914477765 -7.199653731679259 -7.199653731679259 -7.199653731679259
leaf_weight=2.1992253196658575 0.016488301218487211 0.015703144017606863 0.048679746454581618 0.06752351927571032 0.04161333164665848
leaf_count=2801 21 20 62 86 53
internal_value=-7.1578 -7.17858 -6.72794 -7.19965 -7.19965
internal_weight=2.38923 2.37275 0.105996 2.26675 0.0902931
internal_count=3043 3022 135 2887 115
is_linear=0
shrinkage=1


Tree=63
num_leaves=4
num_cat=0
split_feature=31 0 0
split_gain=341.144 8.88178e-16 2.77556e-17
threshold=3.2715458869934086 5.3034465312957773 4.7902042865753183
decision_type=2 2 2
left_child=-1 2 -2
right_child=1 -3 -4
leaf_value=-1.1791466078883959 -6.9119847600937803 -6.9119847600937812 -6.9119847600937794
leaf_weight=0.026165050803684031 0.14861748856492374 2.9713031692663208 0.038724275189451873
leaf_count=25 142 2839 37
internal_value=-6.86489 -6.91198 -6.91198
internal_weight=3.18481 3.15864 0.187342
internal_count=3043 3018 179
is_linear=0
shrinkage=1


Tree=64
num_leaves=2
num_cat=0
split_feature=13
split_gain=4.44089e-16
threshold=34.738336563110359
decision_type=2
left_child=-1
right_child=-2
leaf_value=-7.6051057476353829 -7.6051057476353803
leaf_weight=1.5733435732545329 0.019895858829841129
leaf_count=3005 38
internal_value=-7.60511
internal_weight=1.59324
internal_count=3043
is_linear=0
shrinkage=1


Tree=65
num_leaves=8
num_cat=0
split_feature=17 5 7 3 3 0 0
split_gain=30.5862 18.9535 43.4652 4.28409 58.9644 2.77556e-17 6.93889e-18
threshold=-20.098696708679196 0.0013774099643342199 67.706325531005874 2947.3666992187505 2964.2136230468755 12.326008796691896 9.6957368850708026
decision_type=2 2 2 2 2 2 2
left_child=-1 2 -2 -3 -5 6 -6
right_child=1 3 -4 4 5 -7 -8
leaf_value=-5.5667943382425733 -7.1996537316792582 -7.1996537316792599 -4.0155779144777872 -4.015577914477765 -7.199653731679259 -7.1996537316792599 -7.1996537316792573
leaf_weight=0.030621130834333932 0.033761759637855326 2.0971548835514118 0.015703144017606974 0.015703144017606863 0.042398488847538829 0.13661735295318067 0.017273458419367671
leaf_count=39 43 2671 20 20 54 174 22
internal_value=-7.13687 -7.15726 -6.18884 -7.178 -6.9638 -7.19965 -7.19965
internal_weight=2.38923 2.35861 0.0494649 2.30915 0.211992 0.196289 0.0596719
internal_count=3043 3004 63 2941 270 250 76
is_linear=0
shrinkage=1


Tree=66
num_leaves=5
num_cat=0
split_feature=10 0 0 1
split_gain=60.9835 2.22045e-16 1.11022e-16 1.11022e-16
threshold=36.432119369506843 29.981224060058597 24.866304397583011 0.54246953129768383
decision_type=2 2 2 2
left_child=1 2 -1 -3
right_child=-2 3 -4 -5
leaf_value=-7.6051057476353829 -4.5245490556603256 -7.6051057476353829 -7.6051057476353829 -7.6051057476353803
leaf_weight=0.76965559157542862 0.016230832203291468 0.67855350114405155 0.11256867495831102 0.016230832203291357
leaf_count=1470 31 1296 215 31
internal_value=-7.57372 -7.60511 -7.60511 -7.60511
internal_weight=1.59324 1.57701 0.882224 0.694784
internal_count=3043 3012 1685 1327
is_linear=0
shrinkage=1


Tree=67
num_leaves=4
num_cat=0
split_feature=4 6 0
split_gain=124.819 254.659 2.22045e-16
threshold=8912.5766601562518 -437.79776000976557 4.1647393703460702
decision_type=2 2 2
left_child=2 -2 -1
right_child=1 -3 -4
leaf_value=-7.6051057476353829 1.944619997487032 -7.6051057476353803 -7.6051057476353829
leaf_weight=0.063352603116072603 0.010471504647284746 0.020943009294569603 1.498472315026447
leaf_count=121 20 40 2862
internal_value=-7.54234 -4.42186 -7.60511
internal_weight=1.59324 0.0314145 1.56182
internal_count=3043 60 2983
is_linear=0
shrinkage=1


Tree=68
num_leaves=5
num_cat=0
split_feature=17 7 0 0
split_gain=131.521 247.958 2.22045e-16 1.11022e-16
threshold=19.072932243347172 46.457824707031257 29.61943340301514 28.526507377624515
decision_type=2 2 2 2
left_child=2 -2 3 -1
right_child=1 -3 -4 -5
leaf_value=-7.6051057476353829 -7.6051057476353803 1.944619997487032 -7.6051057476353829 -7.6051057476353812
leaf_weight=0.84609757550060727 0.019372283597476891 0.010471504647284746 0.69164288195315748 0.025655186385847628
leaf_count=1616 37 20 1321 49
internal_value=-7.54234 -4.25432 -7.60511 -7.60511
internal_weight=1.59324 0.0298438 1.5634 0.871753
internal_count=3043 57 2986 1665
is_linear=0
shrinkage=1


Tree=69
num_leaves=4
num_cat=0
split_feature=8 3 2
split_gain=89.0712 27.0483 67.8169
threshold=65.297275543212905 3221.0961914062505 3654.712280273438
decision_type=2 2 2
left_child=1 -1 -3
right_child=-2 2 -4
leaf_value=-7.6051057476353829 -3.0576172975771128 -2.8302428750741235 -7.6051057476353812
leaf_weight=1.5461176611715925 0.010995079879649095 0.010471504647284635 0.025655186385847628
leaf_count=2953 21 20 49
internal_value=-7.54234 -7.57351 -6.22109
internal_weight=1.59324 1.58224 0.0361267
internal_count=3043 3022 69
is_linear=0
shrinkage=1


Tree=70
num_leaves=4
num_cat=0
split_feature=17 1 0
split_gain=39.8084 149.881 1.11022e-16
threshold=17.040159225463871 0.42646573483943945 16.717709541320804
decision_type=2 2 2
left_child=2 -2 -1
right_child=1 -3 -4
leaf_value=-8.2982398447492489 -8.2982398447492454 1.2489864264595862 -8.2982398447492489
leaf_weight=0.26395100494846702 0.019115499366307631 0.0052371231140568844 0.50852465437492356
leaf_count=1008 73 20 1942
internal_value=-8.23549 -6.24507 -8.29824
internal_weight=0.796828 0.0243526 0.772476
internal_count=3043 93 2950
is_linear=0
shrinkage=1


Tree=71
num_leaves=10
num_cat=0
split_feature=16 5 31 7 24 31 0 1 0
split_gain=21.9677 39.6508 19.2736 43.1391 2.16958 61.077 2.22045e-16 1.11022e-16 5.55112e-17
threshold=-25.442413330078121 0.029451275244355205 13.698781013488771 7.0299570560455331 6.7967534065246591 7.9529109001159677 27.977097511291507 0.51867464184761058 12.422539710998537
decision_type=2 2 2 2 2 2 2 2 2
left_child=1 -1 4 -4 5 8 -6 -8 -2
right_child=2 -3 3 -5 6 -7 7 -9 -10
leaf_value=-7.1996537316792573 -7.199653731679259 -4.0155779144777872 -4.015577914477765 -7.1996537316792582 -7.1996537316792599 -4.0155779144777872 -7.1996537316792599 -7.1996537316792582 -7.1996537316792599
leaf_weight=0.02591018762905184 0.11384779412765134 0.015703144017606974 0.015703144017606863 0.032976602436974645 0.99400901631452121 0.015703144017606974 0.89115342299919575 0.02983597363345325 0.25439093308523297
leaf_count=33 145 20 20 42 1266 20 1135 38 324
internal_value=-7.13687 -5.99812 -7.15706 -6.17253 -7.1779 -7.06943 -7.19965 -7.19965 -7.19965
internal_weight=2.38923 0.0416133 2.34762 0.0486797 2.29894 0.383942 1.915 0.920989 0.368239
internal_count=3043 53 2990 62 2928 489 2439 1173 469
is_linear=0
shrinkage=1


Tree=72
num_leaves=9
num_cat=0
split_feature=16 11 9 20 0 1 0 0
split_gain=53.2953 11.2106 100.314 141.514 4.44089e-16 1.11022e-16 5.55112e-17 6.93889e-18
threshold=25.598947525024418 -14.177870273590086 22.93313026428223 17.095791816711429 28.997959136962894 0.38260425627231603 9.9694104194641131 7.2354648113250741
decision_type=2 2 2 2 2 2 2 2
left_child=1 2 6 -4 -3 -6 7 -1
right_child=-2 4 3 -5 5 -7 -8 -9
leaf_value=-7.1996537316792564 -4.4308921515040263 -7.1996537316792599 -0.83150209727631719 -7.1996537316792573 -7.1996537316792599 -7.1996537316792599 -7.1996537316792599 -7.1996537316792573
leaf_weight=0.025910187629052284 0.018058615620247909 1.1274857404641809 0.015703144017606974 0.019628930022008717 0.77495015726890404 0.15860175457783043 0.22769558825530112 0.021199244423769414
leaf_count=33 23 1436 20 25 987 202 290 27
internal_value=-7.13687 -7.15748 -6.87722 -4.36936 -7.19965 -7.19965 -7.19965 -7.19965
internal_weight=2.38923 2.37117 0.310137 0.0353321 2.06104 0.933552 0.274805 0.0471094
internal_count=3043 3020 395 45 2625 1189 350 60
is_linear=0
shrinkage=1


Tree=73
num_leaves=6
num_cat=0
split_feature=22 22 0 0 0
split_gain=13.7171 70.9565 168.378 4.44089e-16 2.77556e-17
threshold=7.8095824718475351 7.3502240180969247 17.386802673339847 23.974444389343265 6.5116100311279306
decision_type=2 2 2 2 2
left_child=1 4 -3 -2 -1
right_child=3 2 -4 -5 -6
leaf_value=-7.1996537316792582 -7.1996537316792599 -0.83150209727631719 -7.1996537316792582 -7.1996537316792599 -7.1996537316792599
leaf_weight=0.035332074039616024 0.98772775870747898 0.015703144017606974 0.030621130834333599 1.1416185700800268 0.17823068459983915
leaf_count=45 1258 20 39 1454 227
internal_value=-7.1578 -6.81487 -5.04096 -7.19965 -7.19965
internal_weight=2.38923 0.259887 0.0463243 2.12935 0.213563
internal_count=3043 331 59 2712 272
is_linear=0
shrinkage=1


Tree=74
num_leaves=7
num_cat=0
split_feature=18 18 20 0 3 0
split_gain=77.7031 16.2695 78.5951 2.22045e-16 1.11022e-16 6.93889e-18
threshold=21.232378005981449 -16.532704353332516 10.516510963439943 29.61943340301514 1319.144226074219 14.929070472717287
decision_type=2 2 2 2 2 2
left_child=1 2 -1 -3 -5 -4
right_child=-2 3 5 4 -6 -7
leaf_value=-2.8302428750741235 -3.6260533538343465 -7.6051057476353829 -7.6051057476353803 -7.6051057476353803 -7.6051057476353829 -7.6051057476353821
leaf_weight=0.010471504647284635 0.012565805576741806 0.84505042503587879 0.015707256970927119 0.015707256970927119 0.66075194324366748 0.03298523963894695
leaf_count=20 24 1614 30 30 1262 63
internal_value=-7.54234 -7.57347 -6.76 -7.60511 -7.60511 -7.60511
internal_weight=1.59324 1.58067 0.059164 1.52151 0.676459 0.0486925
internal_count=3043 3019 113 2906 1292 93
is_linear=0
shrinkage=1


Tree=75
num_leaves=6
num_cat=0
split_feature=8 30 6 2 2
split_gain=59.3963 5.39421 57.8659 4.44089e-16 5.55112e-17
threshold=65.297275543212905 11.63753652572632 -251.67808532714841 6052.5717773437509 4606.2697753906259
decision_type=2 2 2 2 2
left_child=1 3 4 -1 -3
right_child=-2 2 -4 -5 -6
leaf_value=-7.1996537316792599 -4.1672005724397323 -7.1996537316792599 -4.015577914477765 -7.1996537316792582 -7.1996537316792573
leaf_weight=2.1701745032332851 0.016488301218487211 0.13661735295318067 0.015703144017606863 0.030621130834333488 0.019628930022008717
leaf_count=2764 21 174 20 39 25
internal_value=-7.1578 -7.17858 -6.90887 -7.19965 -7.19965
internal_weight=2.38923 2.37275 0.171949 2.2008 0.156246
internal_count=3043 3022 219 2803 199
is_linear=0
shrinkage=1


Tree=76
num_leaves=9
num_cat=0
split_feature=16 17 13 31 6 0 1 3
split_gain=39.3659 39.9701 38.8575 12.9491 34.5032 8.88178e-16 2.22045e-16 1.38778e-17
threshold=25.598947525024418 24.890295982360843 37.532867431640632 13.419692516326906 -330.00563049316401 29.61943340301514 0.46949036419391638 2514.2312011718755
decision_type=2 2 2 2 2 2 2 2
left_child=1 2 3 5 -5 -1 -7 -8
right_child=-2 -3 -4 4 -6 6 7 -9
leaf_value=-6.9119847600937803 -4.8348694875555678 -4.8348694875555678 -4.9214159572446565 -6.9119847600937803 -4.523302196674849 -6.9119847600937812 -6.9119847600937794 -6.9119847600937794
leaf_weight=1.6797962615964952 0.024071846739388891 0.024071846739388891 0.025118448771536239 0.054423305671662092 0.020932040642946848 1.2810408873483536 0.039770877221599332 0.03558446909300983
leaf_count=1605 23 23 24 52 20 1224 38 34
internal_value=-6.84919 -6.86453 -6.8801 -6.89592 -6.24846 -6.91198 -6.91198 -6.91198
internal_weight=3.18481 3.16074 3.13667 3.11155 0.0753553 3.03619 1.3564 0.0753553
internal_count=3043 3020 2997 2973 72 2901 1296 72
is_linear=0
shrinkage=1


Tree=77
num_leaves=9
num_cat=0
split_feature=14 0 12 6 0 6 8 6
split_gain=145.826 194.469 12.4879 25.486 8.88178e-16 2.22045e-16 2.22045e-16 1.38778e-17
threshold=21.749477386474613 22.315397262573246 -40.943513870239251 -332.26976013183588 29.270113945007328 -179.36821746826169 -41.49595642089843 -160.04176330566403
decision_type=2 2 2 2 2 2 2 2
left_child=2 -2 3 -1 -4 6 -6 -7
right_child=1 -3 4 -5 5 7 -8 -9
leaf_value=-4.7774075789315313 -0.95451411563972055 -6.6888543105774252 -6.6888543105774261 -6.6888543105774243 -6.6888543105774261 -6.6888543105774252 -6.6888543105774261 -6.6888543105774243
leaf_weight=0.026158196851611137 0.026158196851611026 0.034005655907094479 2.1109664859250188 0.052316393703223052 0.51139274844899762 0.040545205119997263 1.1352657433599231 0.04316102480515871
leaf_count=20 20 26 1614 40 391 31 868 33
internal_value=-6.6386 -4.19566 -6.6761 -6.05171 -6.68885 -6.68885 -6.68885 -6.68885
internal_weight=3.97997 0.0601639 3.91981 0.0784746 3.84133 1.73036 1.64666 0.0837062
internal_count=3043 46 2997 60 2937 1323 1259 64
is_linear=0
shrinkage=1


Tree=78
num_leaves=5
num_cat=0
split_feature=25 26 0 0
split_gain=22.7671 431.973 4.44089e-16 5.55112e-17
threshold=6.278818130493165 8.5243496894836444 26.828820228576664 8.1431293487548846
decision_type=2 2 2 2
left_child=1 3 -2 -1
right_child=2 -3 -4 -5
leaf_value=-7.199653731679259 -7.1996537316792599 0.44212822960436604 -7.1996537316792599 -7.1996537316792599
leaf_weight=0.063597733271308576 1.0434739199699836 0.019628930022008717 1.0065715315286068 0.25596124748699367
leaf_count=81 1329 25 1282 326
internal_value=-7.13687 -6.75742 -7.19965 -7.19965
internal_weight=2.38923 0.339188 2.05005 0.319559
internal_count=3043 432 2611 407
is_linear=0
shrinkage=1


Tree=79
num_leaves=9
num_cat=0
split_feature=14 12 2 0 0 1 10 15
split_gain=39.9819 42.4838 10.4169 37.038 8.88178e-16 2.22045e-16 2.22045e-16 2.77556e-17
threshold=-38.379060745239251 -48.326684951782219 1211.8467407226565 13.34133815765381 28.868684768676761 0.5591925084590913 13.913313388824465 0.28993523120880133
decision_type=2 2 2 2 2 2 2 2
left_child=-1 -2 3 -3 6 -6 -4 -8
right_child=1 2 4 -5 5 -7 7 -9
leaf_value=-4.8348694875556051 -4.7404551569857345 -4.523302196674849 -6.9119847600937812 -6.9119847600937803 -6.9119847600937812 -6.9119847600937785 -6.9119847600937794 -6.9119847600937803
leaf_weight=0.024071846739389335 0.023025244707242432 0.020932040642946848 1.4966409059707073 0.072215540218167007 1.3563962336629627 0.024071846739389113 0.035584469093009941 0.13187185605056584
leaf_count=23 22 20 1430 69 1296 23 34 126
internal_value=-6.86489 -6.88035 -6.89605 -6.3752 -6.91198 -6.91198 -6.91198 -6.91198
internal_weight=3.18481 3.16074 3.13771 0.0931476 3.04457 1.38047 1.6641 0.167456
internal_count=3043 3020 2998 89 2909 1319 1590 160
is_linear=0
shrinkage=1


Tree=80
num_leaves=10
num_cat=0
split_feature=19 12 0 15 2 0 0 2 0
split_gain=50.9885 30.5808 31.8408 8.0071 55.2469 4.44089e-16 2.22045e-16 2.22045e-16 1.38778e-17
threshold=9.4348187446594256 -44.890035629272454 29.981224060058597 -15.410201549530028 4606.2697753906259 29.786711692810062 15.889546394348146 3138.842407226563 22.902698516845707
decision_type=2 2 2 2 2 2 2 2 2
left_child=-1 2 -2 4 8 6 -5 -7 -3
right_child=1 3 -4 5 -6 7 -8 -9 -10
leaf_value=-4.5462572173447171 -7.1996537316792555 -7.1996537316792573 -4.0155779144777872 -7.1996537316792599 -4.0155779144777872 -7.1996537316792599 -7.1996537316792599 -7.1996537316792599 -7.199653731679259
leaf_weight=0.018843772821128701 0.015703144017607307 0.040043017244899004 0.015703144017606974 0.71998915320727908 0.015703144017606974 0.41063721606042225 0.52605532458983362 0.56374287023209035 0.062812576070427895
leaf_count=24 20 51 20 917 20 523 670 718 80
internal_value=-7.13687 -7.15747 -5.60762 -7.17828 -6.77792 -7.19965 -7.19965 -7.19965 -7.19965
internal_weight=2.38923 2.37039 0.0314063 2.33898 0.118559 2.22042 1.24604 0.97438 0.102856
internal_count=3043 3019 40 2979 151 2828 1587 1241 131
is_linear=0
shrinkage=1


Tree=81
num_leaves=7
num_cat=0
split_feature=15 14 6 1 7 1
split_gain=93.6185 25.5318 69.3336 2.22045e-16 5.55112e-17 3.46945e-18
threshold=27.790845870971683 -31.956099510192868 -234.1969299316406 0.16460030525922778 72.072517395019545 0.42646573483943945
decision_type=2 2 2 2 2 2
left_child=1 2 5 4 -3 -1
right_child=-2 3 -4 -5 -6 -7
leaf_value=-7.6051057476353803 -2.830242875074223 -7.6051057476353829 -2.8302428750741235 -7.6051057476353829 -7.6051057476353829 -7.6051057476353785
leaf_weight=0.016754407435655594 0.010471504647284857 0.090578515199012943 0.010471504647284635 1.0796121291350571 0.37435629114042968 0.010995079879648983
leaf_count=32 20 173 20 2062 715 21
internal_value=-7.54234 -7.57352 -6.29692 -7.60511 -7.60511 -7.60511
internal_weight=1.59324 1.58277 0.038221 1.54455 0.464935 0.0277495
internal_count=3043 3023 73 2950 888 53
is_linear=0
shrinkage=1


Tree=82
num_leaves=4
num_cat=0
split_feature=8 0 0
split_gain=90.3221 2.22045e-16 1.11022e-16
threshold=-153.54125213623044 18.024285316467289 17.084081649780277
decision_type=2 2 2
left_child=-1 2 -2
right_child=1 -3 -4
leaf_value=-3.0576172975771128 -7.6051057476353829 -7.6051057476353829 -7.6051057476353812
leaf_weight=0.010995079879649095 0.54975399398244906 1.0068351718364281 0.025655186385847628
leaf_count=21 1050 1923 49
internal_value=-7.57372 -7.60511 -7.60511
internal_weight=1.59324 1.58224 0.575409
internal_count=3043 3022 1099
is_linear=0
shrinkage=1


Tree=83
num_leaves=6
num_cat=0
split_feature=17 8 3 7 2
split_gain=20.0889 73.5439 19.8909 74.9602 6.93889e-18
threshold=-15.783706665039061 -54.106262207031243 3173.2153320312505 29.520781517028812 4470.1596679687509
decision_type=2 2 2 2 2
left_child=1 -1 -2 -4 -3
right_child=2 4 3 -5 -6
leaf_value=-2.8302428750741733 -7.6051057476353829 -7.6051057476353812 -2.8302428750741235 -7.6051057476353821 -7.6051057476353785
leaf_weight=0.010471504647284746 1.4989958902588112 0.024608035921119265 0.010471504647284635 0.038220991962589324 0.010471504647284746
leaf_count=20 2863 47 20 73 20
internal_value=-7.54234 -6.50744 -7.5728 -6.57825 -7.60511
internal_weight=1.59324 0.045551 1.54769 0.0486925 0.0350795
internal_count=3043 87 2956 93 67
is_linear=0
shrinkage=1


Tree=84
num_leaves=6
num_cat=0
split_feature=10 31 1 0 0
split_gain=30.5691 159.12 2.22045e-16 3.46945e-18 3.46945e-18
threshold=24.041010856628422 5.0182483196258554 0.51051855087280285 10.98424005508423 19.102607727050785
decision_type=2 2 2 2 2
left_child=2 -2 -1 -3 -4
right_child=1 3 4 -5 -6
leaf_value=-8.2982398447492489 1.2489864264595862 -8.29823984474924 -8.2982398447492418 -8.2982398447492454 -8.2982398447492454
leaf_weight=0.74079106448334642 0.0052371231140568844 0.0054989792697597286 0.0075938285153824827 0.020686636300524697 0.017020650120684877
leaf_count=2829 20 21 29 79 65
internal_value=-8.23549 -6.70704 -8.29824 -8.29824 -8.29824
internal_weight=0.796828 0.0314227 0.765406 0.0261856 0.0246145
internal_count=3043 120 2923 100 94
is_linear=0
shrinkage=1


Tree=85
num_leaves=6
num_cat=0
split_feature=14 4 6 2 2
split_gain=34.128 21.5356 41.7224 4.44089e-16 6.93889e-18
threshold=-36.214519500732415 8912.5766601562518 -276.88107299804682 1163.8395996093752 797.57058715820324
decision_type=2 2 2 2 2
left_child=-1 3 -3 4 -2
right_child=1 2 -4 -5 -6
leaf_value=-5.4307227221228569 -7.1996537316792555 -7.1996537316792582 -4.015577914477765 -7.1996537316792599 -7.199653731679259
leaf_weight=0.028265659231692886 0.021199244423770192 0.02983597363345325 0.015703144017606863 2.2549714809283614 0.039257860044017434
leaf_count=36 27 38 20 2872 50
internal_value=-7.1578 -7.17848 -6.1017 -7.19965 -7.19965
internal_weight=2.38923 2.36097 0.0455391 2.31543 0.0604571
internal_count=3043 3007 58 2949 77
is_linear=0
shrinkage=1


Tree=86
num_leaves=5
num_cat=0
split_feature=14 21 0 0
split_gain=156.736 35.0714 4.44089e-16 5.55112e-17
threshold=27.019915580749515 51.343038558959968 9.2080268859863299 8.7249884605407733
decision_type=2 2 2 2
left_child=1 2 3 -1
right_child=-2 -3 -4 -5
leaf_value=-6.9119847600937803 -2.9308471543955341 -5.1425902686723299 -6.9119847600937812 -6.9119847600937794
leaf_weight=0.44794566975906613 0.025118448771536239 0.028258254867978283 2.6468565393006429 0.036631071125157177
leaf_count=428 24 27 2529 35
internal_value=-6.86489 -6.89616 -6.91198 -6.91198
internal_weight=3.18481 3.15969 3.13143 0.484577
internal_count=3043 3019 2992 463
is_linear=0
shrinkage=1


Tree=87
num_leaves=5
num_cat=0
split_feature=10 12 1 1
split_gain=15.6428 174.047 1.11022e-16 6.93889e-18
threshold=17.317896842956547 -15.052315711975096 0.56856968998909008 0.39055156707763677
decision_type=2 2 2 2
left_child=2 -2 -1 -3
right_child=1 3 -4 -5
leaf_value=-8.2982398447492489 1.2489864264595862 -8.2982398447492471 -8.2982398447492418 -8.29823984474924
leaf_weight=0.72926939363242127 0.0052371231140568844 0.048443388805026188 0.0083793969824910164 0.0054989792697597286
leaf_count=2785 20 185 32 21
internal_value=-8.23549 -7.45335 -8.29824 -8.29824
internal_weight=0.796828 0.0591795 0.737649 0.0539424
internal_count=3043 226 2817 206
is_linear=0
shrinkage=1


Tree=88
num_leaves=5
num_cat=0
split_feature=16 7 15 0
split_gain=108.655 35.7991 14.609 32.8444
threshold=24.030647277832035 168.75030517578128 23.016593933105472 16.594852447509769
decision_type=2 2 2 2
left_child=1 2 -1 -4
right_child=-2 -3 3 -5
leaf_value=-6.9119847600937812 -4.1017699796008715 -5.0745366343868916 -4.523302196674849 -6.9119847600937794
leaf_weight=3.0550313318381099 0.035584469093009718 0.027211652835830935 0.020932040642946848 0.046050489414483309
leaf_count=2919 34 26 20 44
internal_value=-6.84919 -6.88023 -6.89597 -6.16552
internal_weight=3.18481 3.14923 3.12201 0.0669825
internal_count=3043 3009 2983 64
is_linear=0
shrinkage=1


Tree=89
num_leaves=8
num_cat=0
split_feature=20 24 0 29 14 0 3
split_gain=23.4179 17.4463 20.0247 6.1676 31.8039 8.88178e-16 2.22045e-16
threshold=5.8979551792144784 22.938179969787601 25.421542167663578 4.3413896560668954 -15.271148681640623 29.270113945007328 2238.030395507813
decision_type=2 2 2 2 2 2 2
left_child=-1 3 -3 4 -2 -5 -7
right_child=1 2 -4 5 -6 6 -8
leaf_value=-5.4556628708058739 -4.7774075789315313 -4.7774075789315233 -6.6888543105774243 -6.6888543105774261 -6.6888543105774252 -6.6888543105774261 -6.6888543105774261
leaf_weight=0.040545205119997596 0.026158196851611137 0.026158196851611026 0.028774016536772251 2.036415624897927 0.12948307441547591 0.66311029018834267 1.029325046110898
leaf_count=31 20 20 22 1557 99 507 787
internal_value=-6.65117 -6.66347 -5.77864 -6.67598 -6.3676 -6.68885 -6.68885
internal_weight=3.97997 3.93942 0.0549322 3.88449 0.155641 3.72885 1.69244
internal_count=3043 3012 42 2970 119 2851 1294
is_linear=0
shrinkage=1


Tree=90
num_leaves=8
num_cat=0
split_feature=20 17 0 0 0 0 0
split_gain=13.8395 175.85 2.22045e-16 2.77556e-17 6.93889e-18 3.46945e-18 3.46945e-18
threshold=39.522724151611335 -7.1311299800872794 11.326621055603029 10.081519126892092 26.005532264709476 16.717709541320804 10.612834453582765
decision_type=2 2 2 2 2 2 2
left_child=2 -2 3 -1 5 -3 -5
right_child=1 4 -4 6 -6 -7 -8
leaf_value=-8.2982398447492471 1.2489864264595862 -8.2982398447492454 -8.2982398447492489 -8.2982398447492436 -8.2982398447492471 -8.2982398447492436 -8.2982398447492436
leaf_weight=0.13537963249837048 0.0052371231140568844 0.017020650120684877 0.57006085096509196 0.012830951629439369 0.032993875618558377 0.010997958539519459 0.01230723931803368
leaf_count=517 20 65 2177 49 126 42 47
internal_value=-8.23549 -7.54352 -8.29824 -8.29824 -8.29824 -8.29824 -8.29824
internal_weight=0.796828 0.0662496 0.730579 0.160518 0.0610125 0.0280186 0.0251382
internal_count=3043 253 2790 613 233 107 96
is_linear=0
shrinkage=1


Tree=91
num_leaves=1
num_cat=0
split_feature=
split_gain=
threshold=
decision_type=
left_child=
right_child=
leaf_value=-34.538776391283193
leaf_weight=
leaf_count=3821
internal_value=
internal_weight=
internal_count=
is_linear=0
shrinkage=1


Tree=92
num_leaves=4
num_cat=0
split_feature=20 3 0
split_gain=111.516 267.962 2.22045e-16
threshold=54.40904617309571 2413.428833007813 28.526507377624515
decision_type=2 2 2
left_child=2 -2 -1
right_child=1 -3 -4
leaf_value=-7.6051057476353829 -7.6051057476353812 1.944619997487032 -7.6051057476353829
leaf_weight=0.84505042503587879 0.024608035921119265 0.010471504647284746 0.71310946648009121
leaf_count=1614 47 20 1362
internal_value=-7.54234 -4.75444 -7.60511
internal_weight=1.59324 0.0350795 1.55816
internal_count=3043 67 2976
is_linear=0
shrinkage=1


Tree=93
num_leaves=6
num_cat=0
split_feature=27 29 0 2 7
split_gain=260.895 25.2325 4.44089e-16 2.22045e-16 2.22045e-16
threshold=19.634390830993656 17.136842727661136 29.270113945007328 2854.0051269531255 -47.742300033569329
decision_type=2 2 2 2 2
left_child=1 2 -1 -4 -5
right_child=-2 -3 3 4 -6
leaf_value=-6.6888543105774261 -2.2778233913945414 -5.4145564894801428 -6.6888543105774261 -6.6888543105774261 -6.6888543105774261
leaf_weight=2.1554354205727586 0.034005655907094368 0.039237295277416595 0.56632496183738146 0.15564127126708616 1.029325046110898
leaf_count=1648 26 30 433 119 787
internal_value=-6.6386 -6.67618 -6.68885 -6.68885 -6.68885
internal_weight=3.97997 3.94596 3.90673 1.75129 1.18497
internal_count=3043 3017 2987 1339 906
is_linear=0
shrinkage=1


Tree=94
num_leaves=9
num_cat=0
split_feature=6 6 16 21 1 31 6 1
split_gain=12.2113 34.26 22.754 12.0503 32.3628 10.8505 35.6791 4.44089e-16
threshold=-403.02575683593744 -406.78729248046869 -16.598070144653317 35.84727859497071 0.17641793191432956 4.6952970027923593 -435.94691467285151 0.52876338362693798
decision_type=2 2 2 2 2 2 2 2
left_child=1 2 -1 5 -5 6 -4 -2
right_child=7 -3 3 4 -6 -7 -8 -9
leaf_value=-5.5068773698473299 -6.9119847600937812 -4.8348694875556051 -6.9119847600937803 -4.5233021966748614 -6.9119847600937794 -6.9119847600937812 -4.5233021966748614 -6.9119847600937803
leaf_weight=0.03558446909300983 2.2051904817344625 0.024071846739389335 0.061749519896693528 0.020932040642946959 0.043957285350188613 0.72110880014952272 0.020932040642946959 0.051283499575219937
leaf_count=34 2107 23 59 20 42 689 20 49
internal_value=-6.84919 -6.69655 -6.7461 -6.79687 -6.14144 -6.84978 -6.30725 -6.91198
internal_weight=3.18481 0.928336 0.904264 0.86868 0.0648893 0.80379 0.0826816 2.25647
internal_count=3043 887 864 830 62 768 79 2156
is_linear=0
shrinkage=1


Tree=95
num_leaves=5
num_cat=0
split_feature=5 0 0 0
split_gain=85.538 104.152 1.11022e-16 2.77556e-17
threshold=0.14388854801654818 16.594852447509769 15.691836357116701 11.140476226806642
decision_type=2 2 2 2
left_child=2 -2 3 -1
right_child=1 -3 -4 -5
leaf_value=-8.2982398447492471 1.2489864264595862 -8.29823984474924 -8.2982398447492489 -8.2982398447492471
leaf_weight=0.1620889603800606 0.0052371231140568852 0.0062845477368682623 0.53549583841231652 0.087721812160452828
leaf_count=619 20 24 2045 335
internal_value=-8.23549 -3.95859 -8.29824 -8.29824
internal_weight=0.796828 0.0115217 0.785307 0.249811
internal_count=3043 44 2999 954
is_linear=0
shrinkage=1


Tree=96
num_leaves=5
num_cat=0
split_feature=11 4 3 1
split_gain=40.8097 193.37 39.4766 4.44089e-16
threshold=30.986055374145511 6942.1452636718759 3440.5805664062505 0.58244603872299205
decision_type=2 2 2 2
left_child=2 -2 3 -1
right_child=1 -3 -4 -5
leaf_value=-6.9119847600937812 -6.9119847600937803 -2.9308471543954999 -4.9214159572446565 -6.9119847600937794
leaf_weight=2.9304856900125755 0.16013011091854412 0.037677673157304525 0.025118448771536239 0.031398060964420327
leaf_count=2800 153 36 24 30
internal_value=-6.84919 -6.15367 -6.89525 -6.91198
internal_weight=3.18481 0.197808 2.987 2.96188
internal_count=3043 189 2854 2830
is_linear=0
shrinkage=1


Tree=97
num_leaves=10
num_cat=0
split_feature=6 16 2 5 0 2 0 0 2
split_gain=32.4907 8.53509 29.4407 8.88178e-16 4.44089e-16 2.22045e-16 2.77556e-17 1.38778e-17 6.93889e-18
threshold=-650.89614868164051 16.639520645141605 2303.7839355468755 0.0021833796054124836 29.981224060058597 3962.1003417968755 29.981224060058597 18.156031608581547 3537.7714843750005
decision_type=2 2 2 2 2 2 2 2 2
left_child=-1 3 -3 6 -5 -6 7 -2 -8
right_child=1 2 -4 4 5 -7 8 -9 -10
leaf_value=-5.0267267178418749 -6.6888543105774252 -4.7774075789315233 -6.6888543105774261 -6.6888543105774261 -6.6888543105774261 -6.6888543105774261 -6.6888543105774243 -6.6888543105774243 -6.6888543105774243
leaf_weight=0.030081926379353141 0.066703401971609178 0.026158196851611026 0.08762995945289731 2.0481868134811521 1.1352657433599236 0.49438992049545039 0.032697746064513922 0.032697746064513922 0.026158196851611137
leaf_count=23 51 20 67 1566 868 378 25 25 20
internal_value=-6.66373 -6.6762 -6.24944 -6.68885 -6.68885 -6.68885 -6.68885 -6.68885 -6.68885
internal_weight=3.97997 3.94989 0.113788 3.8361 3.67784 1.62966 0.158257 0.0994011 0.0588559
internal_count=3043 3020 87 2933 2812 1246 121 76 45
is_linear=0
shrinkage=1


Tree=98
num_leaves=1
num_cat=0
split_feature=
split_gain=
threshold=
decision_type=
left_child=
right_child=
leaf_value=-34.538776391283193
leaf_weight=
leaf_count=3821
internal_value=
internal_weight=
internal_count=
is_linear=0
shrinkage=1


Tree=99
num_leaves=4
num_cat=0
split_feature=27 0 0
split_gain=50.5267 4.44089e-16 5.55112e-17
threshold=3.5515786409378056 8.4360318183898944 8.1431293487548846
decision_type=2 2 2
left_child=-1 2 -2
right_child=1 -3 -4
leaf_value=-4.6523930779180915 -7.1996537316792599 -7.1996537316792599 -7.1996537316792573
leaf_weight=0.01962893002200905 0.30464099394157562 2.0476899798959494 0.017273458419367671
leaf_count=25 388 2608 22
internal_value=-7.17873 -7.19965 -7.19965
internal_weight=2.38923 2.3696 0.321914
internal_count=3043 3018 410
is_linear=0
shrinkage=1


Tree=100
num_leaves=5
num_cat=0
split_feature=19 0 0 1
split_gain=82.4134 2.22045e-16 1.11022e-16 1.11022e-16
threshold=143.55896759033206 29.981224060058597 10.98424005508423 0.34839957952499395
decision_type=2 2 2 2
left_child=1 2 -1 -3
right_child=-2 3 -4 -5
leaf_value=-7.6051057476353829 -3.4530510758430131 -7.6051057476353829 -7.6051057476353829 -7.6051057476353829
leaf_weight=0.32409306883346267 0.012042230344377569 0.53980606456752867 0.56074907386209816 0.15654899447690696
leaf_count=619 23 1031 1071 299
internal_value=-7.57372 -7.60511 -7.60511 -7.60511
internal_weight=1.59324 1.5812 0.884842 0.696355
internal_count=3043 3020 1690 1330
is_linear=0
shrinkage=1


Tree=101
num_leaves=9
num_cat=0
split_feature=12 29 1 8 19 0 6 0
split_gain=45.0938 19.621 42.8023 11.6988 51.5517 4.44089e-16 2.22045e-16 1.38778e-17
threshold=-48.326684951782219 15.750754356384279 0.19657109677791598 -112.41474533081053 49.643005371093757 27.461859703063968 -160.04176330566403 29.981224060058597
decision_type=2 2 2 2 2 2 2 2
left_child=-1 3 -3 4 7 -5 -7 -2
right_child=1 2 -4 5 -6 6 -8 -9
leaf_value=-4.841079052270759 -7.1996537316792582 -4.015577914477765 -7.1996537316792582 -7.1996537316792599 -4.0155779144777872 -7.1996537316792599 -7.1996537316792582 -7.1996537316792582
leaf_weight=0.021199244423769747 0.040828174445778909 0.015703144017606863 0.032191445236094296 1.1761654869187625 0.015703144017606974 1.0332668763585386 0.028265659231692442 0.025910187629051507
leaf_count=27 52 20 41 1498 20 1316 36 33
internal_value=-7.13687 -7.15742 -6.15569 -7.1781 -6.59316 -7.19965 -7.19965 -7.19965
internal_weight=2.38923 2.36803 0.0478946 2.32014 0.0824415 2.2377 1.06153 0.0667384
internal_count=3043 3016 61 2955 105 2850 1352 85
is_linear=0
shrinkage=1


Tree=102
num_leaves=10
num_cat=0
split_feature=15 17 15 26 0 0 1 10 0
split_gain=46.212 46.8276 5.65353 39.527 4.44089e-16 2.22045e-16 2.22045e-16 2.22045e-16 2.77556e-17
threshold=27.790845870971683 24.890295982360843 17.143487930297855 13.569522380828859 28.930657386779789 26.749410629272464 0.54246953129768383 -0.51375196874141682 29.981224060058597
decision_type=2 2 2 2 2 2 2 2 2
left_child=1 2 4 8 5 7 -6 -1 -4
right_child=-2 -3 3 -5 6 -7 -8 -9 -10
leaf_value=-6.9119847600937803 -4.523302196674849 -4.523302196674849 -6.9119847600937803 -4.6370489854090904 -6.9119847600937812 -6.9119847600937803 -6.9119847600937785 -6.9119847600937803 -6.9119847600937803
leaf_weight=1.0120641650864861 0.020932040642946848 0.020932040642946848 0.079541754443198331 0.021978642675094306 1.3208117645699529 0.092100978828966729 0.023025244707241765 0.52748742420226369 0.065935928025282919
leaf_count=967 20 20 76 21 1262 88 22 504 63
internal_value=-6.86489 -6.88038 -6.89608 -6.6134 -6.91198 -6.91198 -6.91198 -6.91198 -6.91198
internal_weight=3.18481 3.16388 3.14295 0.167456 2.97549 1.63165 1.34384 1.53955 0.145478
internal_count=3043 3023 3003 160 2843 1559 1284 1471 139
is_linear=0
shrinkage=1


Tree=103
num_leaves=8
num_cat=0
split_feature=16 11 11 6 6 1 1
split_gain=53.2953 6.81812 42.7035 38.8621 4.44089e-16 5.55112e-17 2.77556e-17
threshold=25.598947525024418 -8.7645392417907697 -9.3112497329711896 -177.36720275878903 -204.22859191894528 0.51051855087280285 0.44005794823169714
decision_type=2 2 2 2 2 2 2
left_child=1 2 3 5 -3 -1 -6
right_child=-2 4 -4 -5 6 -7 -8
leaf_value=-7.1996537316792599 -4.4308921515040263 -7.1996537316792599 -4.7503646415243361 -5.1454112689685854 -7.1996537316792599 -7.1996537316792573 -7.1996537316792573
leaf_weight=0.40906690165866166 0.018058615620247909 1.6818067242857071 0.020414087222889843 0.024339873227290809 0.20178540062624906 0.016488301218487322 0.017273458419367671
leaf_count=521 23 2142 26 31 257 21 22
internal_value=-7.13687 -7.15748 -6.98703 -7.08852 -7.19965 -7.19965 -7.19965
internal_weight=2.38923 2.37117 0.470309 0.449895 1.90087 0.425555 0.219059
internal_count=3043 3020 599 573 2421 542 279
is_linear=0
shrinkage=1


Tree=104
num_leaves=10
num_cat=0
split_feature=21 1 1 4 3 3 1 1 1
split_gain=18.779 27.4444 10.1628 36.6635 1.72644 41.3758 4.44089e-16 5.55112e-17 1.38778e-17
threshold=5.4935848712921151 0.25205415487289434 0.51867464184761058 7623.4699707031259 2805.251342773438 2821.2744140625005 0.042250875383615501 0.21536412835121158 0.016536871902644638
decision_type=2 2 2 2 2 2 2 2 2
left_child=1 -1 4 -4 6 -6 8 -7 -2
right_child=2 -3 3 -5 5 7 -8 -9 -10
leaf_value=-6.9119847600937785 -6.9119847600937758 -4.5233021966748614 -4.523302196674849 -6.9119847600937803 -4.7404551569856519 -6.9119847600937803 -6.9119847600937812 -6.9119847600937803 -6.9119847600937803
leaf_weight=0.028258254867978727 0.023025244707242876 0.020932040642946959 0.020932040642946848 0.069075734121724963 0.023025244707241543 0.19048156985081732 2.4469555511604995 0.27316313039045781 0.088961172732524574
leaf_count=27 22 20 20 66 22 182 2338 261 85
internal_value=-6.86489 -5.89552 -6.88009 -6.35648 -6.89557 -6.80925 -6.91198 -6.91198 -6.91198
internal_weight=3.18481 0.0491903 3.13562 0.0900078 3.04561 0.48667 2.55894 0.463645 0.111986
internal_count=3043 47 2996 86 2910 465 2445 443 107
is_linear=0
shrinkage=1


Tree=105
num_leaves=11
num_cat=0
split_feature=19 8 23 25 21 0 0 0 0 2
split_gain=53.2953 8.18884 54.2472 4.75702 58.483 4.44089e-16 2.77556e-17 1.38778e-17 1.38778e-17 6.93889e-18
threshold=143.55896759033206 -106.16063690185545 17.206542968750004 5.6148028373718271 17.060254096984867 3.9773468971252446 29.981224060058597 29.981224060058597 20.382516860961918 3465.133911132813
decision_type=2 2 2 2 2 2 2 2 2 2
left_child=1 2 7 4 6 -5 -3 8 -1 -9
right_child=-2 3 -4 5 -6 -7 -8 9 -10 -11
leaf_value=-7.1996537316792573 -4.4308921515040263 -7.199653731679259 -4.0155779144777872 -7.199653731679259 -4.0155779144777872 -7.1996537316792599 -7.199653731679259 -7.1996537316792573 -7.1996537316792564 -7.1996537316792564
leaf_weight=0.04004301724489856 0.018058615620247909 0.11384779412765089 0.015703144017606974 0.062812576070428228 0.015703144017606974 2.0100024342536926 0.062812576070427895 0.018843772821128368 0.015703144017606974 0.015703144017606974
leaf_count=51 23 145 20 80 20 2560 80 24 20 20
internal_value=-7.13687 -7.15748 -6.72794 -7.17758 -6.93973 -7.19965 -7.19965 -7.19965 -7.19965 -7.19965
internal_weight=2.38923 2.37117 0.105996 2.26518 0.192364 2.07282 0.17666 0.0902931 0.0557462 0.0345469
internal_count=3043 3020 135 2885 245 2640 225 115 71 44
is_linear=0
shrinkage=1


Tree=106
num_leaves=14
num_cat=0
split_feature=5 6 13 2 2 3 0 2 0 0 0 2 2
split_gain=23.0653 134.847 20.546 23.8868 18.7599 28.6642 4.44089e-16 4.44089e-16 2.22045e-16 5.55112e-17 2.77556e-17 1.38778e-17 6.93889e-18
threshold=0.0038155463989824061 -421.54420471191401 -10.196408748626707 3595.502563476563 1006.2024536132814 1528.8829345703127 29.981224060058597 5699.3293457031259 28.363605499267582 29.981224060058597 24.627506256103519 4629.1262207031259 3609.1721191406255
decision_type=2 2 2 2 2 2 2 2 2 2 2 2 2
left_child=1 2 3 -1 5 -2 8 -8 -6 10 -4 -11 -10
right_child=4 -3 9 -5 6 -7 7 -9 12 11 -12 -13 -14
leaf_value=-6.9119847600937785 -6.9119847600937785 -2.9308471543956038 -6.9119847600937803 -4.5233021966748614 -6.9119847600937812 -4.5233021966748614 -6.9119847600937812 -6.9119847600937794 -6.9119847600937794 -6.9119847600937803 -6.9119847600937794 -6.9119847600937785 -6.9119847600937785
leaf_weight=0.020932040642946959 0.031398060964420771 0.025118448771536683 0.13187185605056584 0.020932040642946959 1.5029205181635914 0.020932040642946959 1.2067321430658919 0.037677673157304636 0.035584469093009941 0.076401948346756399 0.027211652835831046 0.021978642675094306 0.02511844877153635
leaf_count=20 30 24 126 20 1436 20 1153 36 34 73 26 21 24
internal_value=-6.84919 -6.44966 -6.74494 -5.71764 -6.8945 -5.95651 -6.91198 -6.91198 -6.91198 -6.91198 -6.91198 -6.91198 -6.91198
internal_weight=3.18481 0.324447 0.299328 0.0418641 2.86036 0.0523301 2.80803 1.24441 1.56362 0.257464 0.159084 0.0983806 0.0607029
internal_count=3043 310 286 40 2733 50 2683 1189 1494 246 152 94 58
is_linear=0
shrinkage=1


Tree=107
num_leaves=6
num_cat=0
split_feature=7 25 22 0 0
split_gain=139.042 7.38863 40.0682 4.44089e-16 1.38778e-17
threshold=-167.61116790771482 17.607889175415043 15.288690090179445 15.784512519836428 25.267505645751957
decision_type=2 2 2 2 2
left_child=-1 3 -3 -2 -4
right_child=1 2 4 -5 -6
leaf_value=-3.373195777250936 -6.9119847600937803 -4.523302196674849 -6.9119847600937794 -6.9119847600937812 -6.9119847600937803
leaf_weight=0.028258254867978727 0.97961950208991844 0.020932040642946848 0.042910683318041265 2.0471535748802125 0.065935928025282919
leaf_count=27 936 20 41 1956 63
internal_value=-6.86489 -6.89614 -6.52671 -6.91198 -6.91198
internal_weight=3.18481 3.15655 0.129779 3.02677 0.108847
internal_count=3043 3016 124 2892 104
is_linear=0
shrinkage=1


Tree=108
num_leaves=7
num_cat=0
split_feature=25 20 0 6 0 6
split_gain=24.4516 228.6 4.44089e-16 2.22045e-16 2.77556e-17 6.93889e-18
threshold=16.264864921569828 17.630909919738773 26.828820228576664 -174.96546936035153 13.917301654815676 -136.92313385009763
decision_type=2 2 2 2 2 2
left_child=2 -2 -1 -4 -3 -5
right_child=1 4 3 5 -6 -7
leaf_value=-7.1996537316792599 -0.83150209727627278 -7.1996537316792582 -7.1996537316792599 -7.1996537316792582 -7.199653731679259 -7.1996537316792573
leaf_weight=1.176165486918763 0.015703144017606863 0.02355471602641046 1.0136379463365299 0.030621130834333599 0.11384779412765056 0.015703144017606863
leaf_count=1498 20 30 1291 39 145 20
internal_value=-7.1578 -6.54651 -7.19965 -7.19965 -7.19965 -7.19965
internal_weight=2.38923 0.153106 2.23613 1.05996 0.137403 0.0463243
internal_count=3043 195 2848 1350 175 59
is_linear=0
shrinkage=1


Tree=109
num_leaves=8
num_cat=0
split_feature=25 0 0 22 24 2 0
split_gain=31.445 4.66485 58.9521 8.24233 53.8084 4.44089e-16 1.38778e-17
threshold=3.9425150156021123 13.499500751495363 13.244081974029543 18.885502815246586 9.9337143898010272 3979.648315429688 10.744172096252443
decision_type=2 2 2 2 2 2 2
left_child=-1 2 3 -2 -5 -3 -6
right_child=1 5 -4 4 6 -7 -8
leaf_value=-5.523824354204768 -7.1996537316792599 -7.1996537316792599 -4.0155779144777872 -4.0155779144777872 -7.199653731679259 -7.1996537316792599 -7.1996537316792573
leaf_weight=0.029835973633453583 0.51192249497398745 1.2185639757663009 0.015703144017606974 0.015703144017606974 0.063597733271308243 0.51192249497398745 0.021984401624649763
leaf_count=38 652 1552 20 20 81 652 28
internal_value=-7.13687 -7.15727 -7.04065 -7.11812 -6.706 -7.19965 -7.19965
internal_weight=2.38923 2.3594 0.628911 0.613208 0.101285 1.73049 0.0855821
internal_count=3043 3005 801 781 129 2204 109
is_linear=0
shrinkage=1


Tree=110
num_leaves=9
num_cat=0
split_feature=9 20 5 0 0 2 0 4
split_gain=34.4487 4.96206 30.109 8.88178e-16 2.22045e-16 2.22045e-16 2.77556e-17 2.77556e-17
threshold=-67.783699035644517 43.244197845458991 0.010499833151698114 28.526507377624515 25.746530532836918 4745.9370117187509 12.576485633850099 7357.6679687500009
decision_type=2 2 2 2 2 2 2 2
left_child=-1 3 -3 4 -2 -5 -4 -7
right_child=1 2 6 5 -6 7 -8 -9
leaf_value=-5.1425902686723575 -6.9119847600937812 -5.1425902686723299 -6.9119847600937794 -6.9119847600937812 -6.9119847600937803 -6.9119847600937794 -6.9119847600937803 -6.9119847600937803
leaf_weight=0.028258254867978727 1.4976875080028551 0.028258254867978283 0.029304856900125742 1.1868467044550923 0.11512622353620838 0.035584469093009941 0.13187185605056584 0.13187185605056584
leaf_count=27 1431 27 28 1134 110 34 126 126
internal_value=-6.88059 -6.89614 -6.64804 -6.91198 -6.91198 -6.91198 -6.91198 -6.91198
internal_weight=3.18481 3.15655 0.189435 2.96712 1.61281 1.3543 0.161177 0.167456
internal_count=3043 3016 181 2835 1541 1294 154 160
is_linear=0
shrinkage=1


Tree=111
num_leaves=7
num_cat=0
split_feature=6 15 8 16 16 0
split_gain=34.3162 24.2095 38.2089 5.20496 58.046 2.77556e-17
threshold=-626.46542358398426 -23.31563568115234 -48.934654235839837 10.600722312927248 11.074817180633547 23.974444389343265
decision_type=2 2 2 2 2 2
left_child=-1 2 -2 -3 -5 -6
right_child=1 3 -4 4 5 -7
leaf_value=-5.3801818361355327 -4.0155779144777872 -7.1996537316792599 -7.1996537316792564 -4.015577914477765 -7.199653731679259 -7.199653731679259
leaf_weight=0.027480502030812537 0.015703144017606974 2.1450494728051126 0.023554716026411238 0.015703144017606863 0.084796977695077658 0.076945405686274171
leaf_count=35 20 2732 30 20 108 98
internal_value=-7.13687 -7.15731 -5.92602 -7.17813 -6.91788 -7.19965
internal_weight=2.38923 2.36175 0.0392579 2.3225 0.177446 0.161742
internal_count=3043 3008 50 2958 226 206
is_linear=0
shrinkage=1


Tree=112
num_leaves=7
num_cat=0
split_feature=8 26 24 23 0 0
split_gain=12.725 80.9175 11.6663 83.175 2.22045e-16 5.55112e-17
threshold=37.810531616210945 12.276551246643068 18.795258522033695 14.92802667617798 15.096349239349367 14.381882190704347
decision_type=2 2 2 2 2 2
left_child=2 -2 4 -4 5 -1
right_child=1 -3 3 -5 -6 -7
leaf_value=-7.6051057476353829 -7.6051057476353821 -2.8302428750741733 -2.8302428750741235 -7.6051057476353829 -7.6051057476353829 -7.6051057476353803
leaf_weight=0.42304878775030363 0.058116850792430452 0.010471504647284746 0.010471504647284635 0.070682656369172037 1.0015994195127857 0.018848708365112543
leaf_count=808 111 20 20 135 1913 36
internal_value=-7.54234 -6.87612 -7.57231 -6.98899 -7.60511 -7.60511
internal_weight=1.59324 0.0685884 1.52465 0.0811542 1.4435 0.441897
internal_count=3043 131 2912 155 2757 844
is_linear=0
shrinkage=1


Tree=113
num_leaves=10
num_cat=0
split_feature=11 5 20 4 4 6 0 0 0
split_gain=20.6821 40.9381 7.96146 54.8206 190.238 4.44089e-16 5.55112e-17 1.38778e-17 6.93889e-18
threshold=-39.078178405761712 0.02814979758113623 31.194495201110843 7151.2883300781259 7393.7404785156259 -265.20310974121088 19.102607727050785 14.381882190704347 29.981224060058597
decision_type=2 2 2 2 2 2 2 2 2
left_child=1 -1 5 6 -5 -2 7 -4 -6
right_child=2 -3 3 4 8 -7 -8 -9 -10
leaf_value=-7.1996537316792573 -7.1996537316792599 -4.0155779144777872 -7.199653731679259 -0.83150209727631719 -7.1996537316792582 -7.1996537316792599 -7.1996537316792599 -7.1996537316792582 -7.1996537316792573
leaf_weight=0.028265659231692886 1.3850173023529353 0.015703144017606974 0.084011820494197198 0.015703144017606974 0.029050816432572901 0.54646941181272257 0.23240653146058321 0.035332074039615691 0.017273458419367671
leaf_count=36 1764 20 107 20 37 696 296 45 22
internal_value=-7.13687 -6.06248 -7.15701 -6.95798 -5.58746 -7.19965 -7.19965 -7.19965 -7.19965
internal_weight=2.38923 0.0439688 2.34526 0.413778 0.0620274 1.93149 0.35175 0.119344 0.0463243
internal_count=3043 56 2987 527 79 2460 448 152 59
is_linear=0
shrinkage=1


Tree=114
num_leaves=1
num_cat=0
split_feature=
split_gain=
threshold=
decision_type=
